version: 100
cost-factor: 1
maxid: 51414
xsize: 2

B-ADJP
B-ADVP
B-CONJP
B-INTJ
B-LST
B-NP
B-PP
B-PRT
B-SBAR
B-VP
I-ADJP
I-ADVP
I-CONJP
I-INTJ
I-NP
I-PP
I-SBAR
I-VP
O

U01:%x[0,0]
U02:%x[0,1]
B

931 B
3458 U01:#
3572 U01:$
2280 U01:%
3990 U01:&
13604 U01:'
2717 U01:''
46531 U01:'90s
46360 U01:'d
14250 U01:'ll
43168 U01:'re
817 U01:'s
13965 U01:'ve
532 U01:,
19722 U01:--
3534 U01:-LRB-
3629 U01:-RRB-
893 U01:.
47652 U01:...
6175 U01:0.1
40850 U01:0.2
36879 U01:0.272
40641 U01:0.3
25080 U01:0.32
40660 U01:0.4
40622 U01:0.5
24985 U01:0.53
40679 U01:0.9
20463 U01:1
49438 U01:1,200
26562 U01:1,730
26220 U01:1,920
47063 U01:1.17
46987 U01:1.24
5035 U01:1.3
47044 U01:1.38
36708 U01:1.4
47139 U01:1.5
7524 U01:1.5890
7581 U01:1.5940
6365 U01:1.6
45011 U01:1.7
4636 U01:1.8
8797 U01:1.8470
8778 U01:1.8578
10298 U01:1.875
12540 U01:10
50616 U01:10,000
26847 U01:10.2
26049 U01:100
26809 U01:100-share
23959 U01:101.98
25612 U01:1017.69
10146 U01:106.6
46911 U01:107.9
36936 U01:11
27246 U01:11-point
27417 U01:11.0
25061 U01:11.88
23883 U01:112.16
46854 U01:113
41306 U01:11th
21090 U01:12
35891 U01:120-day
8170 U01:13
28671 U01:13.4
41705 U01:13.7
24966 U01:14.06
41686 U01:14.6
8987 U01:141.35
8892 U01:141.70
8968 U01:141.95
8854 U01:142.43
2337 U01:15
41667 U01:15.02
25042 U01:15.72
13281 U01:150
2242 U01:16
46968 U01:161.1
37240 U01:17
27436 U01:1761.0
47025 U01:18
24187 U01:181
9633 U01:19
8322 U01:190
39463 U01:190-point
29773 U01:1969
28500 U01:197
34960 U01:1970s
35777 U01:1974
36499 U01:1975
12692 U01:1980
42389 U01:1980s
13395 U01:1981
44897 U01:1985
3857 U01:1988
23560 U01:1989
48013 U01:1990
3496 U01:2
26600 U01:2,010
26277 U01:2,070
26524 U01:2,120
26429 U01:2,660
10184 U01:2,664,098
26486 U01:2,960
40356 U01:2.1
3724 U01:2.2
3819 U01:2.3
9253 U01:2.4
38057 U01:2.5
7714 U01:2.90
7600 U01:2.9429
7543 U01:2.9495
9158 U01:20
26942 U01:2176.9
26866 U01:2179.1
26961 U01:2189
24947 U01:22.78
27018 U01:2233.9
23826 U01:225
26638 U01:230
10564 U01:233,000
15751 U01:25
12559 U01:250
49134 U01:250-megawatt
16777 U01:26.9
23940 U01:266.66
25004 U01:2679.72
29184 U01:271
25156 U01:28
46835 U01:29
28994 U01:294
16264 U01:3
47196 U01:3.08
25916 U01:3.16
3610 U01:3.2
39824 U01:3.3
38570 U01:3.5
47253 U01:3.53
40299 U01:3.7
6289 U01:3.8
41002 U01:3.9
12635 U01:30
10621 U01:30,000
27398 U01:30-share
49609 U01:300
9804 U01:31
43719 U01:31.65
13186 U01:35
10659 U01:35.50
36347 U01:350
27474 U01:351.3
23902 U01:35486.38
23978 U01:35588.36
24472 U01:35611.38
49419 U01:36
10678 U01:36.50
9367 U01:366.50
9120 U01:367.30
24149 U01:368
25099 U01:3717.46
10279 U01:38
41800 U01:38.8
43472 U01:386
27531 U01:387.4
28329 U01:390-million
12502 U01:4
26657 U01:4,400
47329 U01:4.07
49324 U01:4.4
43681 U01:4.48
38589 U01:4.6
14706 U01:4.7
9595 U01:40
10070 U01:40-a-share
48982 U01:400
47177 U01:400.3
47158 U01:406
25954 U01:42.60
48146 U01:44
42693 U01:45-year-old
25897 U01:450
47234 U01:454
36309 U01:470
46740 U01:48
47804 U01:49
47747 U01:49.2
28842 U01:5
26011 U01:5,440
47310 U01:5.28
15143 U01:5.3
6403 U01:5.4
20957 U01:50
46379 U01:50-50
37449 U01:50.01
49533 U01:500
50293 U01:500-store
47728 U01:51
50255 U01:53
36252 U01:54
24130 U01:572
44156 U01:59
25935 U01:6,050
13300 U01:6.4
25384 U01:6.9
19760 U01:60
28348 U01:622
25251 U01:647.33-point
45866 U01:68
26068 U01:7,580
28880 U01:7.5
36423 U01:71
20976 U01:75
48469 U01:750,000
28823 U01:778
13357 U01:8
28538 U01:8.2
10488 U01:8.7
25992 U01:80
46930 U01:84
24054 U01:862
46873 U01:87
41914 U01:9
17860 U01::
17347 U01:;
20368 U01:?
21945 U01:A
48602 U01:A.
9519 U01:A.P.
42370 U01:AB
37221 U01:AG
34789 U01:ARRIVED
30742 U01:According
48298 U01:Acrylic
36670 U01:Act
7809 U01:Activity
36024 U01:Actually
20919 U01:Adjustment
46759 U01:Adobe
47633 U01:Adverse
29469 U01:African
17727 U01:After
33782 U01:Agency
15713 U01:Air
15580 U01:Air-freight
37582 U01:Airbus
28196 U01:Airlines
28044 U01:Airways
50369 U01:Alexandria
42484 U01:All
48564 U01:Also
19152 U01:Alter
19684 U01:Although
22306 U01:America
34713 U01:American
29431 U01:Amsterdam
10013 U01:An
7068 U01:Analysts
7220 U01:And
42256 U01:Andersson
18981 U01:Angeles
45581 U01:Anglo-American
19038 U01:Appeals
46664 U01:Apple
44555 U01:Applying
14744 U01:April
38095 U01:Ariz.
13851 U01:Arthur
41021 U01:As
15675 U01:Asia
50065 U01:Asia\/Australia
49400 U01:Assessment
51186 U01:Asset
4237 U01:At
16378 U01:Atlantic
798 U01:August
8284 U01:Average
36917 U01:B
28595 U01:B.A.T
3287 U01:Bank
29013 U01:Barclays
3933 U01:Baring
23180 U01:Barksdale
50008 U01:Basf
37696 U01:Bavaria
49932 U01:Beach
22724 U01:Beecham
38722 U01:Benson
12825 U01:Bernard
35017 U01:Besides
44878 U01:Between
16701 U01:Beverly
43624 U01:Bfree
51072 U01:Bince
20900 U01:Board
17138 U01:Bob
45771 U01:Booming
31730 U01:Boren
11096 U01:Boston
11058 U01:Both
37525 U01:Bremen
26087 U01:Breweries
10944 U01:Brick
41648 U01:Brierley
3211 U01:Briscoe
4085 U01:Britain
26752 U01:British
15447 U01:Bros
3952 U01:Brothers
40033 U01:Brown
29317 U01:Brussels
49723 U01:Bureau
49039 U01:Burrillville
30286 U01:Bush
22268 U01:Business
1634 U01:But
34979 U01:By
34086 U01:CIA
15010 U01:Calif.
16739 U01:Calif.-based
13908 U01:Cambridge
40014 U01:Campbell
45334 U01:Canada
45372 U01:Canadian
45638 U01:Capel
16872 U01:Capital
31464 U01:Capitol
12996 U01:Carriers
33763 U01:Central
6707 U01:Certainly
49666 U01:Chambers
1292 U01:Chancellor
43282 U01:Characteristically
40698 U01:Charles
38760 U01:Chicago
2793 U01:Chris
40223 U01:Ciminero
36860 U01:Cincinnati
21033 U01:Citicorp
36898 U01:Class
12198 U01:Clifford
12312 U01:Co
4009 U01:Co.
21527 U01:Coach
32224 U01:Cohen
19456 U01:Columbia
12882 U01:Columbus
4826 U01:Combined
9880 U01:Commission
19057 U01:Committee
9025 U01:Commodity
46683 U01:Computer
0 U01:Confidence
31502 U01:Congress
15865 U01:Connors
14934 U01:Consolidated
48336 U01:Corp
18943 U01:Corp.
19893 U01:Corporate
38019 U01:Cos.
8360 U01:Currency
13870 U01:D.
47861 U01:DRAMs
24700 U01:Dai-ichi
37202 U01:Daimler-Benz
26410 U01:Daiwa
31711 U01:David
29032 U01:De
27550 U01:Dealers
41268 U01:Dec.
21888 U01:Decide
19285 U01:Defense
13813 U01:Delaney
12027 U01:Demand
49685 U01:Development
2812 U01:Dillow
33801 U01:Director
23028 U01:Door
8227 U01:Dow
35682 U01:Dreyfus
50331 U01:Drug
12274 U01:Du
44118 U01:Dunker
40964 U01:Durable
34561 U01:During
37791 U01:E.
49590 U01:EPA
9386 U01:East
49096 U01:Ebasco
39653 U01:Economics
7638 U01:Economists
39976 U01:Edward
50236 U01:Eisenberg
19418 U01:Electric
44631 U01:Electrolux
29279 U01:Elsewhere
49115 U01:Enserch
49248 U01:Environmental
41781 U01:Equity
45030 U01:Ernst
9196 U01:Estimated
16416 U01:Europe
3914 U01:European
39634 U01:Evans
36100 U01:Eventually
23332 U01:Ewing
9044 U01:Exchange
1330 U01:Exchequer
46778 U01:Excluding
19247 U01:Express
34485 U01:F.
50692 U01:FM
27379 U01:FT
27227 U01:FT-SE
34770 U01:FUNDS
45391 U01:Falconbridge
26030 U01:Fanuc
35758 U01:February
8645 U01:Federal
51053 U01:Felipe
26771 U01:Financial
23997 U01:First
47006 U01:Fiscal
49951 U01:Fla.
40242 U01:Fleet\/Norstar
49780 U01:Florida
47766 U01:For
3325 U01:Forecasts
7961 U01:Foreign
21280 U01:Formally
49856 U01:Fort
28956 U01:Forte
39387 U01:Francisco
29374 U01:Frankfurt
23123 U01:Frederick
11115 U01:Freight
14953 U01:Freightways
6042 U01:Friday
26581 U01:Fujisawa
37107 U01:G.m.b
49077 U01:GE
13376 U01:GNP
36556 U01:Gamble
16815 U01:Gaming
40204 U01:Gary
19399 U01:General
49191 U01:Generation
29716 U01:Geneva
34466 U01:Gerald
14478 U01:Gerard
37563 U01:German
17879 U01:Go
28652 U01:Goldsmith
48735 U01:Gordon
38741 U01:Government
16568 U01:Grand
9538 U01:Green
23446 U01:Grievances
11020 U01:Group
37126 U01:H.
41116 U01:HASTINGS
48507 U01:Haines
37962 U01:Hall
37506 U01:Hamburg
40793 U01:Hanover
40052 U01:Harriman
36651 U01:Hart-Scott-Rodino
23503 U01:Harvard
41363 U01:Hastings
4560 U01:He
44099 U01:Henry
20387 U01:Here
45049 U01:Herslow
31483 U01:Hill
16720 U01:Hills
29108 U01:Hillsdown
35549 U01:His
29127 U01:Holdings
48412 U01:Holewinski
26467 U01:Homes
19361 U01:Honeywell
9329 U01:Hong
1995 U01:House
26296 U01:Housings
4655 U01:However
39349 U01:Hugo
36765 U01:Hunt
40812 U01:Hurrican
39330 U01:Hurricane
19627 U01:I
41724 U01:I.E.P.
22990 U01:IBM
47424 U01:IIcx
34808 U01:IN
2964 U01:If
50274 U01:Imasco
5700 U01:In
11039 U01:Inc
9576 U01:Inc.
47215 U01:Including
24871 U01:Index
8265 U01:Industrial
9557 U01:Industries
45429 U01:Industry
38608 U01:Inflation
50559 U01:Infotechnology
32547 U01:Instead
2945 U01:Institute
30191 U01:Intelligence
27911 U01:Interest
22249 U01:International
24605 U01:Investors
10507 U01:It
10241 U01:Its
39995 U01:J.
23161 U01:James
15694 U01:Japan
37772 U01:Jeffrey
23408 U01:Job
10716 U01:John
8246 U01:Jones
3895 U01:Joshi
34599 U01:Journal
51091 U01:Jr
741 U01:July
23389 U01:Justice
39615 U01:K.
38665 U01:Kahan
16036 U01:Kaisha
26505 U01:Kajima
35967 U01:Keeping
41515 U01:Kingdom
26239 U01:Kirin
38703 U01:Kleinwort
9348 U01:Kong
41762 U01:Kong-based
10735 U01:Kuhns
45619 U01:Kurtanjek
48621 U01:Kushkin
25973 U01:Kyocera
48393 U01:L.
10868 U01:L.P
12844 U01:LaLonde
48583 U01:Larry
33744 U01:Last
8683 U01:Late
50046 U01:Latin
49875 U01:Lauderdale
1368 U01:Lawson
14573 U01:Less-than-truckload
37810 U01:Levin
40717 U01:Lieberman
10963 U01:Lime
9443 U01:Limited
15732 U01:Lines
13889 U01:Little
15390 U01:Lloyd
23712 U01:London
47994 U01:Looking
18962 U01:Los
50464 U01:Lotus
47823 U01:Lower
45410 U01:Ltd
41743 U01:Ltd.
50160 U01:Ludwigshafen
16853 U01:Lynch
19095 U01:MAC
41135 U01:MANUFACTURING
37715 U01:MBB
16549 U01:MGM
38494 U01:MMS
34751 U01:MUTUAL
10773 U01:MacDonald
22287 U01:Machines
47386 U01:Macintosh
32243 U01:Maine
11704 U01:Major
20482 U01:Make
19019 U01:Management
29564 U01:Manila
1976 U01:Mansion
30704 U01:Manuel
40774 U01:Manufacturers
39026 U01:Many
47690 U01:Margins
7790 U01:Market
16891 U01:Markets
48260 U01:Martin
13927 U01:Mass.
14535 U01:Massachusetts
41857 U01:May
14497 U01:McCullough
38513 U01:McGraw-Hill
19475 U01:Md.
5624 U01:Meanwhile
19266 U01:Memphis
14972 U01:Menlo
16834 U01:Merrill
37088 U01:Messerschmitt-Boelkow-Blohm
10355 U01:Mexico
49837 U01:Miami
41382 U01:Mich.
15371 U01:Michael
3230 U01:Midland
45600 U01:Mike
29336 U01:Milan
45923 U01:Mining
19380 U01:Minneapolis
26448 U01:Misawa
10374 U01:Mo.
26619 U01:Mochida
8930 U01:Monday
3249 U01:Montagu
29659 U01:Morgan
22439 U01:Most
4674 U01:Mr.
31407 U01:NBC
22876 U01:Naturally
50578 U01:Network
5472 U01:Nevertheless
8702 U01:New
31426 U01:News
1349 U01:Nigel
23788 U01:Nikkei
16017 U01:Nippon
5491 U01:No
2907 U01:Nomura
23465 U01:Nonunion
45353 U01:Noranda
30723 U01:Noriega
16359 U01:North
37639 U01:Northern
18924 U01:Northrop
40489 U01:Norwest
14383 U01:Not
36841 U01:Nov.
14098 U01:Now
36575 U01:Noxell
48887 U01:Ocean
50084 U01:Oct
8151 U01:Oct.
3838 U01:October
49305 U01:Of
49381 U01:Office
30419 U01:Officials
26543 U01:Ohbayashi
12388 U01:Ohio
31749 U01:Okla.
9006 U01:On
32908 U01:One
12521 U01:Only
23009 U01:Open
38247 U01:Oppenheimer
18487 U01:Over
36727 U01:P&G
3306 U01:PLC
15656 U01:Pacific
49913 U01:Palm
30989 U01:Panama
30666 U01:Panamanian
29412 U01:Paris
14991 U01:Park
9424 U01:Partners
9462 U01:Partnership
50312 U01:Peoples
46474 U01:Perhaps
20729 U01:Personnel
29697 U01:Perspective
51167 U01:Philippine
25859 U01:Pioneer
20767 U01:Planning
50996 U01:Please
20710 U01:Polaroid
20748 U01:Policy
48317 U01:Polycast
48184 U01:Polymerix
12293 U01:Pont
48906 U01:Power
30267 U01:President
23541 U01:Press
24852 U01:Price
29355 U01:Prices
51205 U01:Privatization
21052 U01:Problem
16929 U01:Proceeds
36537 U01:Procter
49267 U01:Protection
40261 U01:Providence
49799 U01:Purchase
49058 U01:R.I
40280 U01:R.I.
45562 U01:RTZ
14801 U01:Railroad-rate
30134 U01:Reagan
30343 U01:Republican
2926 U01:Research
8664 U01:Reserve
23427 U01:Resolving
21071 U01:Review
15846 U01:Richard
34846 U01:Roaring
10754 U01:Robert
9405 U01:Rock
42123 U01:Rolls
41629 U01:Ron
36062 U01:Rounding-off
42142 U01:Royce
42237 U01:Rune
35853 U01:SEC
47405 U01:SE\/30
37981 U01:SIERRA
43529 U01:SKr1.5
43757 U01:SKr20
43700 U01:SKr205
43795 U01:SKr225
43662 U01:SKr29
47272 U01:Sales
15428 U01:Salomon
38646 U01:Samuel
39368 U01:San
3876 U01:Sanjay
26201 U01:Sapporo
12217 U01:Sayre
44821 U01:Scandinavia
45486 U01:Scandinavian
48127 U01:Schantz
23522 U01:School
48279 U01:Schrager
48716 U01:Schulman
47348 U01:Sculley
15941 U01:Sea
25023 U01:Second
24016 U01:Section
9861 U01:Securities
49704 U01:Security
21394 U01:See
34504 U01:Seib
31692 U01:Sen.
30172 U01:Senate
34238 U01:Sens.
29602 U01:Seoul
48355 U01:Separately
46816 U01:Sept.
494 U01:September
15960 U01:Service
37943 U01:Seton
29488 U01:Share
36746 U01:Shareholders
16055 U01:Ship
12331 U01:Shippers
50502 U01:Signal
3192 U01:Simon
29583 U01:Singapore
28633 U01:Sir
23142 U01:Smith
22705 U01:Smith-Kline
40470 U01:Sohn
16245 U01:Some
31844 U01:Someone
29450 U01:South
29678 U01:Stanley
12407 U01:State
7372 U01:Sterling
24833 U01:Stock
29298 U01:Stockholm
17157 U01:Stone
50350 U01:Stores
25327 U01:Street
42940 U01:Stroking
15770 U01:Such
40432 U01:Sung
49286 U01:Superfund
43054 U01:Swede
46132 U01:Swedes
42313 U01:Swedish
29507 U01:Sydney
20881 U01:System
19323 U01:Systems
34827 U01:THE
38000 U01:TUCSON
22838 U01:TV
20862 U01:TWA
29526 U01:Taipei
14554 U01:Technology
49989 U01:Terms
48488 U01:Terry
11799 U01:That
2527 U01:The
14459 U01:There
19494 U01:These
27740 U01:They
2071 U01:This
33592 U01:Though
2052 U01:Thursday
26790 U01:Times-Stock
29735 U01:To
36290 U01:Today
8911 U01:Tokyo
24890 U01:Topix
13718 U01:Transport
42351 U01:Trelleborg
48754 U01:Trimmer
15219 U01:Truckers
11381 U01:Trucking
51224 U01:Trust
28937 U01:Trusthouse
38076 U01:Tucson
23294 U01:Tuesday
34865 U01:Twenties
2850 U01:U.K.
8626 U01:U.S.
15979 U01:U.S.A.
28139 U01:UAL
17499 U01:Unable
19304 U01:Underseas
28177 U01:United
12426 U01:University
50388 U01:Va
36784 U01:Valley
41496 U01:Vickers
25118 U01:Volume
25308 U01:Wall
39672 U01:Washington
13946 U01:We
33820 U01:Webster
29070 U01:Wedd
29545 U01:Wellington
49894 U01:West
10925 U01:Westwood
20273 U01:What
18620 U01:When
30381 U01:White
32205 U01:William
23351 U01:Winchester
24073 U01:Winners
24225 U01:With
47082 U01:Without
40451 U01:Won
23484 U01:Workplace
42674 U01:Yet
8721 U01:York
10697 U01:York-based
14231 U01:You
15922 U01:Yusen
41591 U01:Zealand
29051 U01:Zoete
29393 U01:Zurich
13566 U01:`
2489 U01:``
665 U01:a
7942 U01:abated
13623 U01:able
4370 U01:about
26885 U01:above
12008 U01:abroad
21698 U01:accept
47918 U01:access
35416 U01:accident
38475 U01:according
3686 U01:account
36271 U01:accounts
45714 U01:acknowledges
9500 U01:acquire
37753 U01:acquires
15637 U01:across
33934 U01:act
27569 U01:action
30590 U01:actions
23598 U01:active
31635 U01:activities
40090 U01:activity
22078 U01:acts
36404 U01:add
26258 U01:added
38133 U01:addiction-treatment
24719 U01:adding
33440 U01:addition
44460 U01:additions
21660 U01:adjudicator
20672 U01:adjudicators
38437 U01:adjusted
5434 U01:adjusting
30153 U01:administration
49343 U01:administrative
19874 U01:adopt
5244 U01:advance
23921 U01:advanced
25707 U01:advances
21983 U01:advantages
22496 U01:advertising
35720 U01:advertising-backed
42427 U01:advice
37278 U01:aerospace
30932 U01:affect
4940 U01:after
24795 U01:afternoon
6802 U01:again
15561 U01:against
34162 U01:agency
27797 U01:aggressively
6327 U01:ago
7087 U01:agree
32566 U01:agreed
9766 U01:agreement
17898 U01:ahead
11419 U01:air-freight
15998 U01:air-freight-forwarding
28386 U01:airline
14003 U01:all
49571 U01:allocations
6973 U01:allow
23256 U01:almost
36442 U01:alone
18069 U01:along
7391 U01:already
5092 U01:also
45087 U01:alter
27037 U01:although
34314 U01:ambiguities
22325 U01:among
3097 U01:an
15409 U01:analyst
1653 U01:analysts
25498 U01:analyzing
760 U01:and
1862 U01:announce
11476 U01:announced
28234 U01:announcing
13205 U01:annual
323 U01:another
34352 U01:anti-American
43225 U01:anxious
1881 U01:any
22401 U01:anybody
37468 U01:aparently
31046 U01:apparently
19912 U01:appeals
34200 U01:appeared
44612 U01:appliance
21375 U01:approach
32129 U01:appropriate
9899 U01:approval
43510 U01:approve
35587 U01:approved
22154 U01:arbitrates
2603 U01:are
40185 U01:areas
33098 U01:argue
34371 U01:argument
42104 U01:army
37734 U01:around
35473 U01:arrived
34542 U01:article
4997 U01:as
18012 U01:ask
18658 U01:asked
33611 U01:assassination
32851 U01:assassinations
35815 U01:assets
37905 U01:associate
2888 U01:at
34409 U01:atmosphere
9823 U01:attached
31825 U01:attempt
31236 U01:attempts
26106 U01:attracted
27151 U01:attributed
6935 U01:audience
23370 U01:author
38912 U01:auto
48640 U01:automotive
21869 U01:average
33478 U01:avoid
14687 U01:away
3116 U01:awful
8474 U01:back
35169 U01:backbone
35625 U01:backed-up
21432 U01:backwards
2565 U01:bad
7752 U01:balance
33630 U01:ban
50730 U01:band
36157 U01:bank
35074 U01:banking
36176 U01:banks
32813 U01:banning
44479 U01:barely
12977 U01:bargain
2204 U01:base
11077 U01:based
34295 U01:basic
3078 U01:be
5282 U01:because
30229 U01:become
1767 U01:been
5415 U01:before
12939 U01:began
29241 U01:begin
46626 U01:beginning
7999 U01:begun
40337 U01:behavior
2147 U01:being
46493 U01:belief
24415 U01:believe
17385 U01:believed
4693 U01:believes
7695 U01:below
14041 U01:benefits
22895 U01:best
20121 U01:better
16397 U01:between
35359 U01:beyond
32091 U01:bickering
28120 U01:bid
51395 U01:bidding
51281 U01:bids
11818 U01:big
46208 U01:bigger
44840 U01:biggest
3515 U01:billion
42598 U01:biotechnology
28405 U01:bit
31540 U01:bitter
34029 U01:blame
15333 U01:bloodletting
9671 U01:board
45258 U01:boldest
34884 U01:boom
4199 U01:boost
10450 U01:boosted
6840 U01:both
42921 U01:bothered
11267 U01:bottoming
10640 U01:bought
21793 U01:bound
31977 U01:branches
46113 U01:break
46303 U01:break-up
46588 U01:breakdown
11894 U01:bright
47481 U01:brightened
45201 U01:bring
12768 U01:broad-based
31597 U01:broadly
21014 U01:brought
17651 U01:building
49020 U01:built
16093 U01:bulk
5168 U01:bullish
21755 U01:business
42218 U01:businesses
45733 U01:busy
3363 U01:but
24301 U01:buying
1805 U01:by
44194 U01:bylaws
29640 U01:calculated
19646 U01:call
19000 U01:called
38456 U01:calls
33307 U01:came
33573 U01:campaign
5757 U01:can
4503 U01:capital
33079 U01:carried
15048 U01:carrier
14155 U01:carriers
14592 U01:carry
16074 U01:carrying
42161 U01:cars
18335 U01:case
19133 U01:cases
39900 U01:catastrophes
12046 U01:caught
25194 U01:caused
45885 U01:caution
34580 U01:centennial
38152 U01:centers
50103 U01:central
9177 U01:cents
34656 U01:century
12084 U01:certain
45657 U01:certainly
17822 U01:chairman
1824 U01:chancellor
45961 U01:chances
11837 U01:change
28804 U01:changed
8816 U01:changing
31768 U01:charged
46455 U01:cheating
50179 U01:chemical
23066 U01:chief
47614 U01:chip
47956 U01:chips
31882 U01:chosen
22591 U01:chronic
45182 U01:cigar
30457 U01:cited
32452 U01:classification
30818 U01:classified
49476 U01:cleanup
6764 U01:clear
35606 U01:clearing
41933 U01:clearly
8550 U01:close
10260 U01:closed
22819 U01:closed-circuit
27968 U01:closely
44308 U01:closer
36518 U01:closes
43776 U01:closing
5681 U01:clouded
16169 U01:coal
18525 U01:coffee
43491 U01:coffers
31996 U01:come
25840 U01:comeback
8398 U01:coming
10051 U01:comment
1406 U01:commitment
30837 U01:committee
33687 U01:committees
16112 U01:commodities
37848 U01:commodity
10583 U01:common
50958 U01:compact
11438 U01:companies
36366 U01:companion
10127 U01:company
29754 U01:comparable
12616 U01:compared
6346 U01:compares
14763 U01:competing
11210 U01:competition
11989 U01:competitive
15181 U01:competitors
31350 U01:complained
21147 U01:complaint-resolution
20558 U01:complaints
49153 U01:complete
38038 U01:completed
49229 U01:completion
47842 U01:component
50882 U01:computer
47443 U01:computers
30875 U01:conceded
42541 U01:concentrate
29165 U01:concern
7904 U01:concerns
43567 U01:conditions
17613 U01:conference
7467 U01:confidence
43814 U01:confident
46436 U01:conflict
42332 U01:conglomerate
30495 U01:congressional
45448 U01:conquest
23655 U01:consecutive
38361 U01:consensus
50863 U01:consideration
31027 U01:considered
40071 U01:construction
26315 U01:constructions
13832 U01:consultant
42465 U01:consultants
4484 U01:consumer
38969 U01:consumption
16340 U01:containers
30533 U01:contends
32300 U01:context
9918 U01:contingent
46322 U01:continue
4446 U01:continued
48108 U01:continues
31787 U01:continuing
48849 U01:contract
30552 U01:contribute
34523 U01:contributed
10792 U01:control
41572 U01:controlled
44137 U01:controls
36005 U01:convenience
46018 U01:cooperate
34428 U01:cooperation
19589 U01:corporate
31958 U01:correspondence
36993 U01:cosmetics
13775 U01:cost
11609 U01:costs
3040 U01:could
32148 U01:country
29925 U01:coup
32623 U01:coup-planning
16226 U01:couple
30058 U01:coups
17556 U01:court
21508 U01:courts
27854 U01:cover
33041 U01:covered
30571 U01:covert
22572 U01:cranks
43206 U01:crazy
34941 U01:created
35036 U01:creating
22002 U01:credibility
47367 U01:credited
44289 U01:crept
31806 U01:criticism
34181 U01:criticisms
39577 U01:crumbling
18506 U01:cup
34124 U01:curbs
5187 U01:currency
2318 U01:current
10165 U01:currently
13167 U01:cut
14326 U01:cutting
23674 U01:daily
39938 U01:damage
3420 U01:data
8740 U01:day
25631 U01:days
44726 U01:dead
28272 U01:deal
7980 U01:dealers
28443 U01:dealings
38209 U01:debt
11191 U01:decade
23313 U01:decide
28063 U01:decided
35378 U01:decimal
17537 U01:decision
41154 U01:declared
51376 U01:declares
4978 U01:decline
7505 U01:declined
26733 U01:declines
11134 U01:declining
49514 U01:decontaminated
12597 U01:decrease
2375 U01:defend
37259 U01:defense
3667 U01:deficit
874 U01:deficits
38551 U01:deflator
9082 U01:delivery
11647 U01:demand
37544 U01:demanding
20520 U01:department
34105 U01:deputies
11248 U01:deregulation
18905 U01:described
45125 U01:describes
33459 U01:desire
35663 U01:desk
19171 U01:details
37031 U01:detergents
32072 U01:develop
48868 U01:developers
19798 U01:developing
26182 U01:development
30685 U01:dictator
29887 U01:dictators
30913 U01:did
32889 U01:differing
31616 U01:difficulties
45752 U01:digesting
44384 U01:diluted
40907 U01:diminished
43035 U01:diminutive
13528 U01:directly
12236 U01:director
43320 U01:directors
27987 U01:disappointing
39311 U01:disasters
17309 U01:discipline
38323 U01:disclose
29203 U01:disclosed
31388 U01:disclosure
14668 U01:discounted
15067 U01:discounting
37392 U01:discuss
46284 U01:discussed
30856 U01:discussing
20007 U01:disgruntled
50977 U01:disks
50787 U01:display
8018 U01:distance
12483 U01:distribution
380 U01:dive
41211 U01:dividend
42807 U01:division
19342 U01:divisions
6061 U01:do
32414 U01:documents
6878 U01:does
47576 U01:dogged
43187 U01:doing
7828 U01:dollar
43909 U01:dominant
2679 U01:down
29089 U01:downgrading
19114 U01:dozen
12749 U01:dramatic
45144 U01:driving
4807 U01:drop
31217 U01:dropped
44270 U01:drops
570 U01:due
21356 U01:due-process
49647 U01:dump
38950 U01:durable
32737 U01:during
47880 U01:dynamic
14630 U01:each
13129 U01:eager
5833 U01:earlier
9310 U01:early
49552 U01:earmarked
26372 U01:earnings
39406 U01:earthquake
27303 U01:eased
8607 U01:easing
8493 U01:economic
2869 U01:economist
2394 U01:economists
5662 U01:economy
47120 U01:edged
5928 U01:effect
16530 U01:effective
20235 U01:efficiency
13053 U01:efficiently
30628 U01:effort
33421 U01:efforts
5966 U01:eight
48545 U01:elected
33554 U01:election
42579 U01:electronics
20653 U01:else
20216 U01:employee
20026 U01:employees
40584 U01:employment
12958 U01:enabled
34333 U01:encouragement
22553 U01:encouraging
18126 U01:end
29944 U01:endanger
26828 U01:ended
37183 U01:endorsement
41534 U01:engineering
21964 U01:enjoys
35264 U01:enough
6859 U01:ensure
17594 U01:entered
44232 U01:entire
36974 U01:entry
29792 U01:equaling
13034 U01:equipment
50768 U01:equipped
7923 U01:equities
51300 U01:equivalent
43852 U01:erase
25650 U01:erasing
1786 U01:eroded
24624 U01:especially
20349 U01:establish
27265 U01:establshed
39805 U01:estimate
24035 U01:estimated
41059 U01:estimates
5149 U01:even
34637 U01:events
31008 U01:ever
23275 U01:every
14402 U01:everyone
5377 U01:evidence
20045 U01:ex-employees
19190 U01:example
36328 U01:exceeding
2432 U01:exchange
38779 U01:excited
35207 U01:exclusive
23085 U01:executive
33706 U01:exercise
34447 U01:existed
30210 U01:existence
42750 U01:existing
49970 U01:expand
48374 U01:expanded
38190 U01:expansion
3401 U01:expect
209 U01:expected
39729 U01:expects
6004 U01:expenditure
4218 U01:exports
18221 U01:extra
27455 U01:extremely
8569 U01:eye
21736 U01:fact
22097 U01:fact-finder
25517 U01:factors
18392 U01:facts
627 U01:fail
1843 U01:failure
4332 U01:fairly
11533 U01:fall
7676 U01:falls
30438 U01:familiar
44042 U01:family
25346 U01:far
32395 U01:fashion
11742 U01:fast
11780 U01:faster
19779 U01:fastest
44859 U01:fastest-growing
22534 U01:fear
6612 U01:fears
27588 U01:featureless
22762 U01:features
15485 U01:feeling
25270 U01:fell
28728 U01:fend
3382 U01:few
41078 U01:fickle
18848 U01:fictional
14782 U01:fiercely
2584 U01:figure
35340 U01:figured
437 U01:figures
22629 U01:file
16587 U01:filed
9842 U01:filing
13148 U01:fill
48811 U01:filled
41458 U01:filters
37411 U01:final
37924 U01:finance
38684 U01:financial
41610 U01:financier
9994 U01:financing
26980 U01:finished
42902 U01:fired
1425 U01:firm
19513 U01:firms
6384 U01:first
46721 U01:fiscal
41230 U01:five
35454 U01:fixed
38836 U01:fixed-income
42294 U01:flagging
5586 U01:flat
22192 U01:flexibility
36043 U01:fluctuate
27322 U01:flurry
8455 U01:focus
26353 U01:following
41838 U01:follows
29146 U01:food
475 U01:for
21204 U01:force
2166 U01:forced
45315 U01:forces
5111 U01:forecasts
2413 U01:foreign
25726 U01:foreseen
15352 U01:forget
46341 U01:form
37164 U01:formal
48792 U01:former
48526 U01:formerly
27721 U01:forward
21451 U01:forwards
44061 U01:foundation
44080 U01:founder
20406 U01:four
50844 U01:four-year-old
23636 U01:fourth
39786 U01:fourth-quarter
20995 U01:fraction
33915 U01:freedom
1539 U01:freefall
11666 U01:freight
14060 U01:freight-cost
14136 U01:freight-rate
12445 U01:freight-transport
722 U01:from
11343 U01:fuel
45809 U01:fueled
18449 U01:full
47101 U01:full-year
34922 U01:fund
8512 U01:fundamentals
33402 U01:funding
34998 U01:funds
5358 U01:further
30609 U01:futile
32167 U01:future
37867 U01:futures
23693 U01:gain
24928 U01:gained
7866 U01:gains
3743 U01:gap
51148 U01:gathered
10830 U01:general
27170 U01:generally
17423 U01:get
32927 U01:gets
15466 U01:getting
45543 U01:giants
18430 U01:give
4427 U01:given
5529 U01:go
42997 U01:goatee
21223 U01:goes
15618 U01:going
9063 U01:gold
14421 U01:good
4522 U01:goods
44764 U01:got
13984 U01:gotten
21489 U01:governing
2128 U01:government
25460 U01:gradually
16150 U01:grain
40888 U01:greatly
32585 U01:grew
22781 U01:grievance
13319 U01:gross
36480 U01:grow
48678 U01:growing
39064 U01:growth
22933 U01:guarantee
32490 U01:guideline
30039 U01:guidelines
42864 U01:gutsy
12654 U01:had
7733 U01:halt
34067 U01:hampered
22648 U01:hand
22686 U01:handbooks
44650 U01:handful
20539 U01:handle
21565 U01:handling
8835 U01:hands
21812 U01:happen
17974 U01:happened
1482 U01:has
22135 U01:hats
11875 U01:haulage
11457 U01:have
4294 U01:he
33326 U01:head
50027 U01:headquarters
34219 U01:headway
37069 U01:health-care
18734 U01:hear
17575 U01:hearing
20938 U01:hears
2641 U01:heavily
43890 U01:held
18373 U01:help
1501 U01:helped
11951 U01:helping
20159 U01:helps
22477 U01:hesitate
33136 U01:hesitation
4465 U01:high
35929 U01:high-grade
25821 U01:high-priced
7201 U01:higher
5947 U01:highest
30799 U01:highly
17233 U01:him
45980 U01:hinge
31198 U01:hint
1938 U01:his
34732 U01:history
28899 U01:hit
24643 U01:hold
7106 U01:holding
26163 U01:holdings
10545 U01:holds
7353 U01:hollow
46227 U01:home
16435 U01:hoping
28747 U01:hostile
16796 U01:hotel
17081 U01:hotel\/casino
27284 U01:hour
37050 U01:household
39235 U01:housing
25783 U01:how
27132 U01:however
20805 U01:hundreds
39767 U01:hunk
45695 U01:hurdles
39748 U01:hurricane
35112 U01:idea
45239 U01:ideas
399 U01:if
21622 U01:immediately
5776 U01:impact
38817 U01:impetus
14725 U01:implemented
6669 U01:import
48697 U01:importance
27208 U01:important
4408 U01:imports
32509 U01:imposed
31179 U01:imprison
46702 U01:improved
703 U01:improvement
38 U01:in
18886 U01:incident
37297 U01:include
35435 U01:included
10602 U01:including
35321 U01:income
2185 U01:increase
2090 U01:increased
11495 U01:increases
48963 U01:independent
23807 U01:index
39862 U01:indicate
47519 U01:indicated
38874 U01:indicators
10982 U01:indirect
37354 U01:industrial
46550 U01:industrialized
42636 U01:industries
4123 U01:industry
13414 U01:inefficiency
46170 U01:inexperienced
11362 U01:inflation
4541 U01:inflows
33725 U01:influence
26695 U01:influenced
21299 U01:informally
50939 U01:information
46607 U01:infrastructure
28310 U01:initial
28215 U01:initially
32642 U01:initiated
46265 U01:insists
36214 U01:instrument
17271 U01:insubordination
31312 U01:intelligence
31103 U01:intended
13224 U01:inter-city
5814 U01:interest
27873 U01:internal
43548 U01:international
50217 U01:internationalization
43605 U01:internationally
32699 U01:interpretation
33877 U01:interpretations
31445 U01:interpreted
43016 U01:interview
18354 U01:intimately
5548 U01:into
26904 U01:intraday
17784 U01:introduced
20691 U01:inundated
39843 U01:inventories
40413 U01:inventory
22059 U01:investigator
41553 U01:investment
5301 U01:investors
32186 U01:invited
33060 U01:involving
16188 U01:iron
133 U01:is
33288 U01:issue
31654 U01:issued
23864 U01:issues
6745 U01:it
8436 U01:its
4161 U01:itself
37601 U01:job
45296 U01:joined
32680 U01:joint
19076 U01:just
14896 U01:keen
20178 U01:keep
8531 U01:keeping
36081 U01:keeps
42503 U01:kept
20425 U01:key
31122 U01:kill
18316 U01:knew
21413 U01:know
30248 U01:known
29906 U01:knows
43453 U01:kronor
14212 U01:labor
7448 U01:lack
26125 U01:land
21261 U01:large
26714 U01:largely
51243 U01:largest
2033 U01:last
7619 U01:late
9785 U01:later
33991 U01:latest
42066 U01:launch
31293 U01:launched
21470 U01:law
19988 U01:lawsuits
18145 U01:lawyers
4788 U01:lead
31331 U01:leaders
13072 U01:leading
45524 U01:league
32357 U01:leaking
39102 U01:leaning
27702 U01:leap
4864 U01:least
14516 U01:lecturer
33117 U01:led
20102 U01:legal
30951 U01:lend
43947 U01:less
15029 U01:less-than-truckload
35131 U01:let
9652 U01:letter
30115 U01:letters
2356 U01:level
14877 U01:levels
44688 U01:lieutenants
21774 U01:life
9234 U01:light
27493 U01:lightest
18715 U01:like
13490 U01:likely
39919 U01:limit
10887 U01:limited
16321 U01:lines
24909 U01:listed
33250 U01:listen
5016 U01:little
42883 U01:little-known
29963 U01:lives
50141 U01:located
12255 U01:logistics
32756 U01:longstanding
13642 U01:look
12673 U01:looked
24111 U01:losers
40166 U01:loss
25669 U01:losses
3135 U01:lot
26923 U01:low
23750 U01:lower
44669 U01:loyal
43111 U01:lucky
48203 U01:lumber-like
6726 U01:made
45942 U01:main
39501 U01:mainly
49210 U01:maintain
25688 U01:major
19836 U01:majority
7315 U01:make
10393 U01:maker
44536 U01:makers
41401 U01:makes
24377 U01:making
19931 U01:management
28101 U01:management-led
22458 U01:managements
17195 U01:manager
20615 U01:managers
45999 U01:manages
40736 U01:managing
4104 U01:manufacturing
18677 U01:many
47785 U01:margin
47557 U01:margins
42180 U01:marine
27645 U01:mark
3439 U01:marked
2451 U01:market
27759 U01:market-makers
29621 U01:markets
23617 U01:marking
7562 U01:marks
4750 U01:material
42845 U01:materials
42617 U01:mature
35910 U01:maturity
22211 U01:maximum
17993 U01:may
11761 U01:maybe
45220 U01:me
20064 U01:means
38532 U01:measured
1919 U01:measures
32528 U01:meddling
42199 U01:medical
30400 U01:meeting
17765 U01:members
23047 U01:memorandums
47937 U01:memory
34257 U01:men
31141 U01:merely
9747 U01:merger
37373 U01:met
45904 U01:metal
45790 U01:metals
38893 U01:mid-October
28918 U01:mid-week
27664 U01:might
34694 U01:milestones
33174 U01:military
51262 U01:mill
9272 U01:million
43358 U01:minerals
22667 U01:minimum
42826 U01:mining
30970 U01:minor
18601 U01:minutes
33972 U01:mishandled
23731 U01:moderately
46797 U01:modest
27512 U01:modestly
7125 U01:moment
1444 U01:monetary
34903 U01:money
5890 U01:month
16283 U01:months
24757 U01:mood
6631 U01:more
24358 U01:morning
11153 U01:most
12160 U01:move
35834 U01:moved
39691 U01:moves
5263 U01:much
44916 U01:multipled
20292 U01:must
22040 U01:mutual
5225 U01:n't
18867 U01:name
37829 U01:named
4617 U01:narrow
33497 U01:nasty
38399 U01:nation
10317 U01:national
39292 U01:natural
17670 U01:near
855 U01:near-record
47291 U01:nearly
6821 U01:necessary
15295 U01:need
18411 U01:needed
50597 U01:negotiations
46949 U01:net
33649 U01:never
1900 U01:new
28025 U01:news
11571 U01:next
28785 U01:night
13699 U01:nine
4028 U01:no
24434 U01:normal
6954 U01:not
38855 U01:notable
3173 U01:noted
30001 U01:notification
29868 U01:notify
40375 U01:noting
10526 U01:now
35397 U01:now-standard
3021 U01:number
28006 U01:numbers
25745 U01:observers
9956 U01:obtaining
14345 U01:occurred
1311 U01:of
15542 U01:off
9690 U01:offer
51338 U01:offered
16663 U01:offering
43434 U01:offerings
51034 U01:offers
31673 U01:office
23199 U01:officer
50122 U01:offices
10032 U01:official
29982 U01:officials
40147 U01:offset
13756 U01:offsetting
16131 U01:oil
48165 U01:old
2660 U01:on
5510 U01:one
39444 U01:one-day
3800 U01:only
27683 U01:open
8949 U01:opened
24510 U01:opening
32718 U01:operate
16492 U01:operating
35511 U01:operations
33193 U01:operatives
38114 U01:operator
13737 U01:opportunity
37487 U01:opposition
37886 U01:options
11552 U01:or
32794 U01:order
24320 U01:orders
16207 U01:ore
7144 U01:other
9139 U01:ounce
9291 U01:ounces
41971 U01:our
30647 U01:oust
8588 U01:out
28367 U01:outlay
30077 U01:outlined
4389 U01:outlook
26391 U01:outlooks
24092 U01:outpaced
38418 U01:output
33212 U01:outrageous
44517 U01:outright
27607 U01:outside
10222 U01:outstanding
1577 U01:over
10336 U01:over-the-counter
5643 U01:overall
13091 U01:overcapacity
39881 U01:overhang
24263 U01:overnight
33516 U01:overseas
46189 U01:own
36233 U01:owners
46398 U01:ownership
44992 U01:owns
41325 U01:paid
17841 U01:panel
22021 U01:panelists
35948 U01:paper
35644 U01:papers
28158 U01:parent
17119 U01:park
24548 U01:part
25422 U01:participants
16454 U01:partly
10849 U01:partner
10906 U01:partnership
46417 U01:partnerships
43833 U01:parts
13585 U01:party
1596 U01:past
14193 U01:pay
41249 U01:payable
28519 U01:pence
28462 U01:penny
18240 U01:people
19855 U01:people-oriented
28481 U01:per
12806 U01:perceived
29811 U01:percentage
47500 U01:performance
19741 U01:perhaps
36632 U01:period
47709 U01:perked
33896 U01:permit
17461 U01:personal
40869 U01:personal-income
18259 U01:personnel
17518 U01:persuade
51319 U01:peso
4351 U01:pessimistic
26334 U01:pharmaceuticals
48944 U01:phase
18468 U01:picture
19532 U01:pioneers
41420 U01:piston
6897 U01:place
48431 U01:placed
16511 U01:plan
17062 U01:planned
15105 U01:plans
19437 U01:plant
48222 U01:plastic
42788 U01:plastics
42047 U01:platform
15504 U01:played
31084 U01:plotters
25232 U01:plunge
8303 U01:plunged
8341 U01:points
1463 U01:policy
12578 U01:polled
39539 U01:poor
7277 U01:popularity
49172 U01:portion
31939 U01:portions
5605 U01:position
5453 U01:positions
24776 U01:positive
40546 U01:possibility
39140 U01:possible
48241 U01:post
7847 U01:posted
37145 U01:postponed
27189 U01:potentially
114 U01:pound
49001 U01:power
19703 U01:practiced
8379 U01:predict
48032 U01:predicted
46094 U01:prefer
8113 U01:preoccupied
6783 U01:prepared
18202 U01:present
15903 U01:president
32775 U01:presidential
3154 U01:pressure
44935 U01:pretax
32319 U01:pretext
1520 U01:prevent
25213 U01:previous
39007 U01:previous-month
14364 U01:previously
14307 U01:price
35796 U01:priced
26676 U01:prices
35986 U01:primarily
49457 U01:priority
22230 U01:privacy
40109 U01:private
30305 U01:privately
17252 U01:probation
44023 U01:problem
21603 U01:problems
22800 U01:procedure
38171 U01:proceeds
19665 U01:process
43377 U01:processing
13338 U01:product
39197 U01:production
11932 U01:productivity
10431 U01:products
12863 U01:professor
44954 U01:profit
24586 U01:profit-taking
48070 U01:profitability
44498 U01:profitable
39273 U01:profits
27341 U01:program
22857 U01:programs
48925 U01:project
17024 U01:projects
7163 U01:promise
18791 U01:promised
45068 U01:promotion
26144 U01:property
10089 U01:proposal
9481 U01:proposed
51129 U01:prospective
33858 U01:provide
50654 U01:provides
35226 U01:province
44574 U01:prowess
16644 U01:public
33839 U01:publicly
50920 U01:publishing
41477 U01:pumps
41819 U01:purchase
49742 U01:purchased
38228 U01:purposes
7182 U01:pushed
17214 U01:putting
20254 U01:quality
6213 U01:quarter
41192 U01:quarterly
27835 U01:quest
18031 U01:questions
44783 U01:quick
6118 U01:quickly
7885 U01:quiet
43073 U01:quips
6441 U01:quite
8759 U01:quoted
50673 U01:quotes
50711 U01:radio
13262 U01:rail
14858 U01:rail-traffic
12901 U01:railroads
15124 U01:raise
15599 U01:raised
45847 U01:raising
39425 U01:ramifications
47899 U01:random
3344 U01:range
41895 U01:ranging
44346 U01:rapid
7030 U01:rate
2223 U01:rates
6536 U01:rather
4731 U01:raw
24453 U01:reached
33953 U01:reacted
30761 U01:read
38285 U01:reading
14117 U01:real
25536 U01:realized
40755 U01:reasearch
17480 U01:reasons
4921 U01:rebound
33345 U01:recalled
42655 U01:recalls
36594 U01:received
11856 U01:recent
12369 U01:recently
39159 U01:recession
1672 U01:reckon
4579 U01:reckons
41287 U01:record
18183 U01:recorders
14288 U01:recoup
27056 U01:recouped
48089 U01:recovery
6593 U01:reduce
20083 U01:reduced
19969 U01:reduces
4712 U01:reduction
14079 U01:reductions
13509 U01:reflected
11590 U01:reflecting
48659 U01:reflects
10412 U01:refractory
17005 U01:refurbishing
42009 U01:refused
25441 U01:regain
43738 U01:regained
36689 U01:regarding
37658 U01:region
37316 U01:regional
39957 U01:regions
3762 U01:registered
16606 U01:registration
31863 U01:regrettably
41173 U01:regular
35093 U01:regulations
35492 U01:regulator
40565 U01:reinforces
25593 U01:related
20140 U01:relations
46151 U01:relatively
36138 U01:relaxation
589 U01:release
6023 U01:released
40128 U01:relief
24244 U01:relieved
33231 U01:reluctant
27930 U01:remain
39083 U01:remainder
24206 U01:remained
4313 U01:remains
6916 U01:reminded
16986 U01:remodeling
46512 U01:renaissance
40926 U01:rental
31521 U01:reopened
44327 U01:repeated
14174 U01:replace
34618 U01:report
3705 U01:reported
40603 U01:reports
29260 U01:repurchases
44213 U01:require
29849 U01:required
30894 U01:requirement
30514 U01:requirements
49362 U01:research
25403 U01:resiliency
21584 U01:resolve
20824 U01:resolved
23104 U01:respect
23218 U01:respectively
27626 U01:response
31578 U01:responsible
20786 U01:rest
1387 U01:restated
50445 U01:restaurant
16473 U01:restore
11970 U01:restrain
14820 U01:restrained
34048 U01:restrictions
28709 U01:restructure
44403 U01:result
44802 U01:results
35739 U01:retail
50426 U01:retailing
35530 U01:retiring
48051 U01:revenue
21850 U01:reversal
21717 U01:reversals
42275 U01:revive
34276 U01:rewrite
31274 U01:rewriting
31255 U01:rewritten
35245 U01:rich
17442 U01:rid
24491 U01:right
6992 U01:rigor
41439 U01:rings
5795 U01:rise
6688 U01:rises
13471 U01:rising
2109 U01:risk
2546 U01:risks
32832 U01:role
17632 U01:room
6156 U01:rose
42769 U01:rubber
33022 U01:rule
31369 U01:rules
50825 U01:rumored
41097 U01:running
47538 U01:sagging
2755 U01:said
16948 U01:sale
38931 U01:sales
4256 U01:same
9975 U01:satisfactory
38988 U01:saving
13680 U01:savings
2470 U01:say
13547 U01:saying
39596 U01:says
11514 U01:scheduled
6232 U01:second
30096 U01:secret
25137 U01:section
49761 U01:security
5339 U01:see
29222 U01:seek
34010 U01:seeking
32984 U01:seem
39482 U01:seems
36461 U01:seen
13794 U01:segments
23845 U01:selected
30780 U01:selections
32376 U01:selective
31901 U01:selectively
50483 U01:sell
27360 U01:selling
30362 U01:senators
15257 U01:send
2831 U01:senior
43396 U01:separately
43643 U01:series
38798 U01:serve
50540 U01:service
6517 U01:services
49818 U01:serving
24814 U01:session
30020 U01:set
9101 U01:settled
30324 U01:seven
14611 U01:several
9614 U01:share
28690 U01:shareholder
41344 U01:shareholders
10203 U01:shares
342 U01:sharp
25365 U01:sharper
40831 U01:shaved
28975 U01:shed
43263 U01:sheet
8417 U01:shift
16302 U01:ship
11723 U01:shippers
11400 U01:shipping
44422 U01:shopping
35188 U01:short-term
27892 U01:shortages
6574 U01:should
646 U01:show
7410 U01:showing
41876 U01:shrank
39558 U01:sick
2698 U01:side
27778 U01:sidelined
4047 U01:sign
15276 U01:signals
48830 U01:signed
19551 U01:significant
9728 U01:signing
7429 U01:signs
15200 U01:similar
8132 U01:since
21926 U01:single
22363 U01:single-adjudicator
49495 U01:sites
23237 U01:sitting
43586 U01:situation
16682 U01:six
35283 U01:six-figure
21128 U01:skill
28424 U01:slid
12179 U01:slightly
40983 U01:slip
15808 U01:slow
5738 U01:slowdown
39045 U01:slower
6099 U01:slowing
35150 U01:small
24282 U01:small-lot
21109 U01:so
39178 U01:softer
50901 U01:software
44251 U01:sold
10811 U01:sole
44004 U01:solve
20577 U01:solved
4902 U01:some
32965 U01:somebody
22743 U01:sometimes
22610 U01:soreheads
30476 U01:sort
31160 U01:sought
7334 U01:sound
34390 U01:sour
33003 U01:source
36822 U01:special
18278 U01:specialists
50749 U01:specially
42028 U01:speculation
2014 U01:speech
22173 U01:speed
6137 U01:spending
25479 U01:spent
43339 U01:spin
43985 U01:spinoff
41990 U01:spokesman
47975 U01:spokeswoman
11913 U01:spot
44441 U01:spree
42408 U01:spurned
11229 U01:spurred
34143 U01:spy
13433 U01:squeezed
15086 U01:stabilize
25802 U01:stabilized
27075 U01:staged
20843 U01:stages
10469 U01:stake
43928 U01:stakes
34675 U01:stand
35872 U01:standards
35701 U01:started
12141 U01:starting
39254 U01:starts
37677 U01:state
16625 U01:statement
37335 U01:states
44365 U01:steadily
50198 U01:step
20444 U01:steps
1558 U01:sterling
17176 U01:stewed
43871 U01:stigma
6422 U01:still
44593 U01:stints
8056 U01:stock
40508 U01:stock-market
50521 U01:stock-quote
4769 U01:stockbuilding
23579 U01:stocks
15314 U01:stop
12464 U01:storage
18563 U01:story
24339 U01:streamed
43244 U01:strengthen
42731 U01:strengthening
32471 U01:stressed
32661 U01:stretched
44707 U01:stripped
6460 U01:strong
39121 U01:strongly
21831 U01:studied
45106 U01:style
9709 U01:subject
51015 U01:submit
20634 U01:subordinates
50635 U01:subscribers
47671 U01:subsided
11001 U01:subsidiary
684 U01:substantial
48773 U01:succeed
36119 U01:success
46075 U01:successful
35568 U01:successor
12730 U01:such
46569 U01:suffering
6080 U01:suggest
7657 U01:suggested
6479 U01:suggestions
31920 U01:summarize
35302 U01:sums
21337 U01:supervisors
12065 U01:supply
1748 U01:support
27816 U01:supporting
20501 U01:sure
45828 U01:surge
25878 U01:surged
38627 U01:surprise
33535 U01:surprises
24529 U01:surrendered
12350 U01:surveyed
51110 U01:surveys
7296 U01:swiftly
22116 U01:switches
13452 U01:system
22515 U01:systems
39520 U01:tacit
285 U01:take
28766 U01:takeover
5909 U01:takes
19209 U01:taking
18753 U01:talk
18582 U01:talked
32604 U01:talks
38342 U01:tamer
42085 U01:tanks
18164 U01:tape
28614 U01:target
36385 U01:tax-exempt
21679 U01:teach
20330 U01:team
42560 U01:technology
17917 U01:tell
42522 U01:telling
40318 U01:temporarily
36613 U01:termination
37430 U01:terms
32262 U01:text
6555 U01:than
4066 U01:that
76 U01:the
2299 U01:their
21546 U01:them
17100 U01:theme
17803 U01:themselves
18696 U01:then
2983 U01:there
25555 U01:these
7239 U01:they
23769 U01:thin
31065 U01:think
43149 U01:thinks
6194 U01:third
38304 U01:third-quarter
5871 U01:this
32338 U01:those
24738 U01:though
17290 U01:thought
11324 U01:threatening
17746 U01:three
18639 U01:through
27113 U01:throughout
11628 U01:tightened
4275 U01:time
14440 U01:times
247 U01:to
50407 U01:tobacco
19228 U01:today
32110 U01:together
18544 U01:told
608 U01:tomorrow
22971 U01:top
28576 U01:top-tier
3781 U01:topped
32281 U01:torn
15789 U01:total
45676 U01:tough
40945 U01:tourism
24567 U01:toward
49628 U01:toxic
418 U01:trade
28557 U01:traded
42959 U01:trademark
24681 U01:trader
24396 U01:traders
7486 U01:trading
14649 U01:trailer
21318 U01:train
36955 U01:transaction
4142 U01:transforming
11685 U01:transport
12122 U01:transportation
13661 U01:transportation-cost
21242 U01:treatment
20596 U01:trenches
19570 U01:trend
19817 U01:trends
42446 U01:trendy
45163 U01:troops
33269 U01:trouble
37620 U01:troubled
13243 U01:truck
15523 U01:trucker
12920 U01:trucking
14915 U01:trucks
32053 U01:trust
51357 U01:trustee
14269 U01:try
15238 U01:trying
46246 U01:turf
25175 U01:turmoil
47595 U01:turn
5396 U01:turnaround
43092 U01:turned
11286 U01:turning
28861 U01:turnover
44973 U01:twelvefold
43415 U01:twin
15162 U01:two
12103 U01:types
21166 U01:typical
33155 U01:uncertainty
7771 U01:unchanged
26999 U01:under
1710 U01:underlying
7011 U01:undermined
38266 U01:underwriter
16910 U01:underwriters
4959 U01:unexpected
17328 U01:unfair
42712 U01:unfashionable
20197 U01:unions
25574 U01:unique
3268 U01:unit
43966 U01:units
22420 U01:unless
21641 U01:unsuccessful
33364 U01:unsuccessfully
18107 U01:until
6270 U01:up
9937 U01:upon
12787 U01:upturn
11305 U01:upward
17936 U01:us
13015 U01:use
16967 U01:used
50806 U01:users
22344 U01:using
41040 U01:usual
25289 U01:value
10108 U01:values
19950 U01:variety
45467 U01:vault
35055 U01:vehicle
46037 U01:venture
39710 U01:versa
2622 U01:very
15884 U01:vice
38380 U01:view
28291 U01:viewed
41952 U01:views
32433 U01:violate
32034 U01:violates
32015 U01:violation
22952 U01:visibility
22382 U01:visible
8037 U01:volatile
40527 U01:volatility
9215 U01:volume
36803 U01:vote
33668 U01:voted
44175 U01:voting
18088 U01:wait
25764 U01:waiting
5320 U01:want
17404 U01:wanted
7258 U01:warn
5719 U01:warned
5130 U01:warns
48450 U01:warrants
6251 U01:was
43301 U01:waste
27949 U01:watching
22914 U01:ways
12711 U01:we
27094 U01:weak
14839 U01:weakening
39216 U01:weaker
7049 U01:weakness
1615 U01:week
24662 U01:weekend
18829 U01:weeks
17043 U01:well
6498 U01:went
13110 U01:were
17955 U01:what
8189 U01:when
17689 U01:where
21907 U01:whether
8075 U01:which
24168 U01:while
42978 U01:white
5054 U01:who
43130 U01:whole
18297 U01:whom
37012 U01:wide
171 U01:widely
40394 U01:wider
4598 U01:will
33383 U01:win
32946 U01:wind
46056 U01:winning
47462 U01:winter
4845 U01:with
28082 U01:withdraw
28253 U01:withdrawal
18810 U01:within
5567 U01:without
18772 U01:witnesses
5206 U01:wo
44745 U01:wood
46645 U01:word
21185 U01:work
17708 U01:worked
19608 U01:world
45505 U01:world-class
16758 U01:would
31559 U01:wrangling
6308 U01:year
46892 U01:year-earlier
29830 U01:year-end
5985 U01:years
8873 U01:yen
32870 U01:yesterday
45277 U01:yet
36195 U01:yields
18050 U01:you
20311 U01:your
3477 U02:#
3591 U02:$
2736 U02:''
3553 U02:(
3648 U02:)
551 U02:,
912 U02:.
17366 U02::
779 U02:CC
2261 U02:CD
95 U02:DT
3002 U02:EX
57 U02:IN
361 U02:JJ
6650 U02:JJR
4883 U02:JJS
3059 U02:MD
19 U02:NN
513 U02:NNP
3971 U02:NNPS
456 U02:NNS
14022 U02:PDT
836 U02:POS
4180 U02:PRP
1957 U02:PRP$
190 U02:RB
5852 U02:RBR
11172 U02:RBS
15827 U02:RP
266 U02:TO
304 U02:VB
2774 U02:VBD
1729 U02:VBG
228 U02:VBN
1691 U02:VBP
152 U02:VBZ
8094 U02:WDT
5073 U02:WP
8208 U02:WRB
2508 U02:``

-0.0194457837606949
-0.0147529487608422
-0.0028584804895191
-0.0030785154783156
-0.0029455318361767
0.2556828190484020
-0.0043142518921314
-0.0042097212635343
-0.0012982854137792
-0.0206549005032538
-0.0064570048894846
-0.0086405775255457
-0.0027470088699516
-0.0032300898336257
-0.1481564217002453
-0.0024141713169675
-0.0030575248169865
-0.0028468246982037
-0.0045747759991490
0.2188007589734784
-0.3890210508813111
-0.2589002807167852
-0.2839554696711165
-0.3417326104867244
2.3220620149300095
-0.3392190836614570
-0.5478013600214532
-0.3684210903351752
0.1422913319313274
-0.1356339179510666
0.0613137466265439
-0.2704021799503453
-0.2817644801589061
3.1785616814365278
-0.6681908681380063
-0.2755384794948553
-0.5992346343352782
-1.1632140280937833
-0.1797852168918481
-0.6455642657644725
-0.0204734366200264
-0.0130661877064680
-0.0142591006385096
-0.2512072984424641
2.6694814817547234
1.2374870212388640
-0.6003481129318178
-0.1756803070299213
-0.0300696221945488
-0.0494918916818646
-0.0357177163608621
-0.0136662429239025
-1.4220489845708144
-0.0937870034865496
-0.0482352367059474
-0.1707634674004246
-0.1428044116429072
-0.2633353304667772
0.9470642492360929
0.1450742110380923
-0.4419308908604943
-0.3876705453161219
-1.8063764669394660
3.5027552449224428
1.6975438605805773
2.9900875558889610
-1.9647425920400616
-0.5056144574896517
-0.5661502354411657
0.4652101597657899
-0.3874167882744799
-2.9919897735863801
1.7236593345162030
0.8142730261736636
-1.9684957854068799
-1.0019447762992328
-0.0786403825805543
-0.2579112954323479
-0.0198604810796110
-0.0360946965019648
-0.0191194019282988
1.4235936054785965
-0.1532970677459922
-0.0458343316703095
-0.0539760871763610
-0.2735877004654180
-0.0318668436830401
-0.0549357526760498
-0.0272204197588697
-0.0197982494932002
-0.6645047159979676
-0.0990618895860621
-0.0356423245760561
-0.3465877818072555
0.7943458166809934
-0.3863111853769378
0.9738902804583497
-0.1016435074193567
0.7071989838778648
-0.0939600712953751
2.3211901665223946
-0.6630141220987503
-0.2109315818896945
-0.3262297768661989
-0.5431565137540669
-0.1694599138719294
-0.2309514036482211
-0.1346208730057702
-0.0976793841578500
-0.7838518582286369
-0.3711557197002439
-0.1551199183284071
-0.7016786088232549
0.9674850076063193
-0.0062290445903082
-0.0034487277668314
-0.0003130033179450
-0.0002792296813356
-0.0006191610277436
-0.0495060814176187
-0.0017232389207292
-0.0002831748668181
-0.0003765524529312
-0.0118231051687548
-0.0037061042789354
-0.0018208953771643
-0.0002994474087653
-0.0003822239920834
0.0867371600714835
-0.0001442741579756
-0.0002388569015701
-0.0003905059789153
-0.0051535327651310
-0.0822779824443276
-0.0572802163344493
-0.0121581026918238
-0.0103592917199547
-0.0102650187951690
-0.2981486125413389
-0.0720270060962402
-0.0193693850349803
-0.0178348985869392
1.2327593254562228
-0.0170733595539139
-0.0133886532543549
-0.0099250767429994
0.8947369358567143
-1.1565202448789325
-0.0072032221365316
-0.0098824253945870
-0.2076912338684656
-0.1260915312377670
-0.3891418677539207
-0.4106726553428059
-0.0702165408436656
-0.0668549739534140
-0.0641311617248169
-0.3233639267040643
-0.6217238183549314
-0.0744098958081247
-0.1584819713497242
3.4336075426475934
-0.1604403590804984
-0.4042545519747834
-0.0764559518647207
0.7973285058251645
-1.3319610104956565
-0.0757015498056381
-0.0701582912260404
0.3477444508661978
-0.2807119730558075
-0.1383331737848199
0.1150725351133441
-0.0032297569663528
-0.0012358321948501
-0.0026365600249839
-0.0754820178021127
-0.0062807301438887
-0.0112509438385975
-0.0060982088191437
-0.0112333332393772
-0.0028200418879932
-0.0217165892425413
-0.0052240437606859
-0.0016384113413181
-0.0041181002775729
-0.0013693932925796
-0.0010255215955571
0.2045531463428710
-0.0259330232438612
0.7975865771319343
2.8559029272710843
0.7861573772038545
-0.4978404047489736
-0.5189652546846143
-0.5871600157484714
-0.4329164494772041
-0.2898610709637351
0.4113274630819410
-1.1518126645247719
-0.0104954876759269
1.3634745053676032
1.0119465304253699
-0.4466833996015820
-2.2328345552092155
0.3679309088515693
-0.4985064863307094
-0.2884804294132294
-0.6387700709543109
-0.0441238832860653
-0.0134619661434802
-0.0029836537201414
-0.0035459005036531
-0.0028077936954339
-0.0676872466694582
-0.0694217583439196
-0.0164888471861759
-0.0066707451905915
0.3699685505967835
-0.0281564391703269
-0.0092150844555744
-0.0029251418768220
-0.0030024209517453
0.1874706454010320
-0.0028912493686970
-0.0029918680453603
-0.2597151221101973
-0.0213500752801878
0.2514578736151840
-0.9181544453233682
-0.1789436062690087
-0.2036817356122948
-0.1867885970559150
-1.1587086308291183
0.8908015204124686
-0.4219576632344652
-0.2518475551320459
1.9317759028416510
1.1335695520400273
-0.8665128605591422
-0.1730009128431635
-0.1772806158693556
-1.0517786307854835
-0.2273184987601739
-0.2019978061400928
2.9358016399645654
-1.1254349304594509
-0.2686789048227233
-0.3042474236337371
-0.0792487506935838
-0.0786393761515369
-0.0802813715937361
-0.9020490342704486
2.3672213729186122
-0.2071242008811425
-0.1494109003248474
0.7869011826537249
-0.4180798542298497
0.2643674925209301
-0.0817572435354066
-0.0756459386668353
-0.5787887377207583
-0.0693489641799410
-0.0796469359626110
0.4272688506657169
-0.4728112620915166
-0.2738163728132937
-0.3090480988900158
-0.0825456813481154
-0.0823671938606144
-0.0836093269648919
-0.9125019269798242
2.3365288697432320
-0.2107198682581281
-0.1525216426573210
0.9992144932041468
-0.4205103506596962
0.2606464703251421
-0.0849125702560840
-0.0789304001275642
-0.5810638965294845
-0.0721961252794648
-0.0828637030489624
0.3120573660436142
-0.4808400416423543
-0.0017861829195180
-0.0039861309868095
-0.0005571922476288
-0.0008087117153355
-0.0005140054881867
-0.0121370096827667
-0.0146224476754578
-0.0016942567814903
-0.0027654655762025
-0.0083685144746151
-0.0010510943792299
-0.0007856962265043
-0.0009884968361629
-0.0005606362966383
-0.0274365759218358
-0.0051345739940352
-0.0009613675033449
0.0936970912800523
-0.0095387325743441
-0.4331551599174428
-0.4600846218623694
-0.0848875952439196
0.7280886802919370
-0.0837254416566297
-1.9748321192029099
-0.5407654968692871
-0.1770505981050644
-0.1996481890342768
2.1424080638406702
-0.1945411086780466
-0.3126064563946611
-0.1039615122103335
-0.0840736946422145
-1.3457054115042897
-0.4943177060683092
-0.1032052063452764
4.4859933704325972
-0.7639297968301233
-0.0060738781782123
-0.0274729084045562
-0.0041625185033913
-0.0041109582252241
-0.0018730645055500
0.2139877049023628
-0.0096626095134537
-0.0039551782442239
-0.0038652295583876
-0.0192250354908573
-0.0035969649268481
-0.0074823310061753
-0.0030705124332881
-0.0020171678971152
-0.0169848508704343
-0.0172195633216656
-0.0035887067759179
-0.0253148932530011
-0.0543113337940862
-0.0434505609183438
-0.0049572098174174
-0.0002931235285753
-0.0002368436125792
-0.0002278582532409
-0.1175700152467113
-0.0067766376842208
-0.0003016217475936
-0.0008621988399195
-0.0127491541952831
-0.0030919094098557
-0.0006486691233335
-0.0003116304339239
-0.0002364287136820
0.1964704753664514
-0.0002667840795141
-0.0003029333224669
-0.0005872002519245
-0.0035996961878122
3.1519801828414247
0.5498630514807356
-0.2354405137494482
-0.2645061917640373
-0.2738118074112130
0.8950255184192706
-0.5733141723166193
-0.6157206168989598
-0.5227936717999393
-0.5908412314590528
1.9067455155617503
-0.2160269997959717
-0.2960954659028285
-0.2448186980058353
1.0864053763107135
-0.4963386392493072
-0.3044896981189771
-1.8966028806782573
-1.0592190574620506
-0.0028316881825553
-0.0016237330967803
-0.0004654365371729
-0.0003640664080586
-0.0003106831024944
-0.0205268393735658
-0.0013386732450774
-0.0002069996932267
-0.0005327141655357
-0.0093298276102865
-0.0061604039616172
-0.0006677134852675
-0.0002882206047879
-0.0003665048757302
0.0470403723141166
-0.0001555652598071
-0.0003158766204408
-0.0004242209121501
-0.0011312051795528
-0.0776241238998199
-0.2593070680775551
0.8661748562748443
-0.0159770640969736
-0.0126733886570955
-0.1525986201313011
-1.8365703568903622
-0.2050503442796590
1.2613759588024940
-0.1111839982921029
-0.1004587399704701
-0.1322620416116211
-0.0497434357594369
-0.0134272764566680
-0.3485222356227945
-0.1160745882394891
1.4962068177871519
-0.0566819497260770
-0.1356024011530943
-0.0007865377540292
-0.0008945283744624
-0.0003002763400466
-0.0002890625583232
-0.0002731939437074
0.0477382427615426
-0.0028688593968688
-0.0002878513730540
-0.0007101399329158
-0.0077898965919812
-0.0011309006964270
-0.0010621762629780
-0.0004305467850030
-0.0002896338032748
-0.0274157700696997
-0.0004518016763947
-0.0007523319331751
-0.0006627701333974
-0.0013419651357817
-0.0044214733555179
-0.0050558816943894
-0.0010010427355066
-0.0009662980696623
-0.0011776222993024
-0.1951600276374900
-0.0028188410240307
-0.0008477360617619
-0.0008628542339644
-0.0346237774351905
-0.0024791952477058
-0.0023263654170614
-0.0007857673927171
-0.0010022373607693
0.2631814879181125
-0.0005106312045474
-0.0007581566919888
-0.0006375137800617
-0.0077460662764813
-0.7514083425129835
-0.7616849833999422
-0.1508199981365169
-0.1772359421608835
-0.2030471956254838
3.0629054799694901
-0.5191683350673151
-0.3859938593524892
-0.2155567875693399
0.5475686466878237
-0.6800521219377859
0.1978941494179366
-0.1537773663403445
-0.1679611816850191
3.2447283757991392
-0.3033850688370294
-0.1589257362582359
-1.3388487834985880
-1.0852309494917669
-0.1089278277804312
-0.4311908238029104
-0.0299980288173918
-0.0208827354873685
-0.0166996287634262
-0.4475926306364637
1.3817768013397012
-0.3535019295793474
0.2164446306725181
-0.1584694996709453
-0.0781253716050495
-0.0374805112074381
-0.0547165570551072
-0.0181253272194044
-0.5480830401970763
-0.2002829733827477
-0.0824525194386126
-0.2148026430959217
1.2031106157276852
-0.0037447115490931
-0.0076352622639676
-0.0010459544289830
-0.0011323243564331
-0.0026206603446768
0.1245676974544646
-0.0023072378641906
-0.0013632032698845
-0.0012984415010562
-0.0107103190739187
-0.0063503102879195
-0.0085754458922763
-0.0015566800413099
-0.0016460223114512
-0.0498984152563723
-0.0074547807180750
-0.0015705442992743
-0.0007973920129990
-0.0148599919826124
-0.6146608990082367
-0.2274797559752665
-0.1569228371395055
-0.1897530768181089
-0.2455341799830709
3.2913999976041506
-0.8739819140737788
-0.2876443382820133
-0.3661521567495331
-0.5372876135483748
-0.3910156285565561
0.1960759991053978
-0.2153278941072045
-0.1859990217489864
3.0245776584605220
-0.4765375362168716
-0.2290712051564686
-0.9036196963138523
-0.6110659014900098
-0.2738242579138696
0.1563227060235362
-0.0704027942250005
-0.0603046428927471
-0.0636713336827095
-0.1416632218166143
-0.0329284344252678
-0.0785477846810480
-0.1160923048261455
-0.7813268755801963
-0.1306634038157235
-0.1896312992351214
-0.0657589622582404
-0.0612531250522288
-0.3616827704089655
-0.0517182462071849
-0.0647668430159796
-0.4609518104915696
2.8488654045059962
-0.2738242579138696
0.1563227060235362
-0.0704027942250005
-0.0603046428927471
-0.0636713336827095
-0.1416632218166143
-0.0329284344252678
-0.0785477846810480
-0.1160923048261455
-0.7813268755801963
-0.1306634038157235
-0.1896312992351214
-0.0657589622582404
-0.0612531250522288
-0.3616827704089655
-0.0517182462071849
-0.0647668430159796
-0.4609518104915696
2.8488654045059962
0.3914071801274334
0.6990639630534932
-0.0053356945721153
-0.0072453083428132
-0.0034171580206854
-0.5058312200124966
-0.0174579835695749
-0.0027230512425557
-0.0049919181569960
-0.1142162765339754
-0.2204144657816779
-0.0097596284044302
-0.0033387007218340
-0.0038197588035346
-0.1499929252027372
-0.0024984026007813
-0.0035000762078294
-0.0017625857445108
-0.0341659892622765
-0.0002667375303522
-0.0005200886470999
-0.0001083726872452
-0.0001154251492369
-0.0000976228571872
0.0281010380241127
-0.0013916123793189
-0.0001312011169268
-0.0003446596676423
-0.0031967154301070
-0.0002320420575476
-0.0002947452010187
-0.0002104911108639
-0.0001181792638164
-0.0178986519563609
-0.0020113176564708
-0.0003448695011648
-0.0001454454722099
-0.0006728603395117
-0.0101529671555886
-0.0079361775874848
-0.0012915190428591
-0.0013964513530856
-0.0025321222177853
1.0569139312008677
-0.0166259984511422
-0.0018826011353320
-0.0041497842223134
-0.0413372379659781
-0.0046705321444368
-0.0134421307277959
-0.0027661975807014
-0.0018250676521626
-0.9091426627356958
-0.0196402010924098
-0.0036356938838233
-0.0023290159049852
-0.0121575703472610
-0.0054031184314022
-0.0057673116860885
-0.0006025693372747
-0.0037312617630458
-0.0004049546159363
-0.0110148473492960
-0.0012688597825498
-0.0005615247531975
-0.0011650468481490
0.1565655829908960
-0.0004357489646176
-0.0003255291495824
-0.0003452447694367
-0.0004306162057820
-0.0027174140099858
-0.0002397181409044
-0.0003882975918283
-0.0977373940689768
-0.0240261255228246
-0.0017181789350112
-0.0058864060009138
-0.0011565896172130
-0.0014894368983879
-0.0010343569054109
-0.0045180927792068
-0.0241761806359738
-0.0023593246940186
-0.0042557979314377
-0.0170689897363580
-0.0016261742308397
-0.0010438334652730
-0.0019332238130021
-0.0011739096989018
-0.0228899749471520
-0.0085607563540394
-0.0019873317754169
0.1196246070740957
-0.0167460486555406
-0.0524592445909036
-0.1779425494499596
-0.0160490762268057
-0.0270482383765606
-0.0136081185331749
1.4736292900362342
-0.0797275899258479
-0.0338553759282039
-0.0290437063298989
-0.1507883801246767
-0.0345045173957462
-0.0331375055090367
-0.0164134334804440
-0.0146246394016750
-0.1376471267859647
-0.0336032387054898
-0.0180483399024318
-0.2686650380525518
-0.3364631713168899
-0.0091495043395208
-0.0010829648802491
-0.0000848185818661
-0.0000698905025509
-0.0000684450352515
-0.0436445812582204
-0.0014302461155075
-0.0000757637910518
-0.0002002633946153
-0.0028751158373004
-0.0004878620274302
-0.0001311564196807
-0.0000851378582909
-0.0000702661872899
0.0605256319938711
-0.0000728795041153
-0.0000828609487129
-0.0000938500108847
-0.0008200253013223
-0.0177310831997980
-0.0102627317630753
-0.0009372764260270
-0.0009609075907515
-0.0008575346219088
-0.2822899412596458
-0.0022412936603387
-0.0038065944108254
-0.0005629102734610
-0.0160652280816025
-0.0072384747281978
-0.0075701321093163
-0.0008292191327827
-0.0009893045477242
0.3799485294254760
-0.0009709150841727
-0.0008928811127813
-0.0226263824857211
-0.0031157189373054
-0.0222387373816421
-0.1501997740704272
-0.0106841485863154
-0.0070640151367751
-0.0061953567461876
-0.1860081205534849
1.6055619670015659
-0.1153714168118237
-0.5077155318521065
-0.0669375699138638
-0.0102982498084545
-0.0360373761304362
-0.0201954934203607
-0.0067292786566027
-0.2452665290419346
-0.0591966003387682
-0.0295452036974229
-0.0407312985381978
-0.0851472663165875
-0.0005589132530795
-0.0015195005806539
-0.0002357188488681
-0.0003036051683743
-0.0003545910401145
0.0343344615947165
-0.0003645111777377
-0.0003576794124606
-0.0002361754526735
-0.0010832477104593
-0.0003250380720972
-0.0010916820823688
-0.0002675797051624
-0.0002947835196793
-0.0220718628566891
-0.0021814472105663
-0.0002564111512658
-0.0001502862978145
-0.0026814280546205
0.3314255759544485
0.2438718623707265
-0.0695471888715817
-0.0654559281490521
-0.0532755805243286
-0.6998369091564249
0.3105302235479313
-0.0740006000221011
-0.1348533435559131
-0.8518277315923113
0.4739122582247590
0.3423661775108320
-0.0692653936972591
-0.0574445591415354
-0.2720076611742495
-0.0539089231805717
-0.0722850277709340
-0.1191212758985964
0.8907240251266376
0.1284015798747805
-0.0624352483166547
-0.1199788511316160
-0.1266451718558768
-0.1071567669118519
-1.6442136685186994
-0.2542635198272002
-0.1353443644040973
-0.2851579431677498
-1.2798972635726105
0.3627916603750392
1.2949358390344092
-0.1400785896623427
-0.1065793912101680
-0.1784956986862202
-0.1347064172509124
-0.1422727154013239
-0.2392736598628282
3.1703701904963322
-0.0035015532612993
-0.0153397423340992
-0.0024450160771229
-0.0031744659193749
-0.0031219514468301
0.0172559363920314
-0.0262243140523954
-0.0035806977616778
-0.0106704791030849
-0.0754916085093214
-0.0064050051228771
-0.0132187051110583
-0.0050273874723019
-0.0029064383660439
0.2545752086012312
-0.0381977915755202
-0.0079698849177882
-0.0040784302841627
-0.0504776736783096
-0.1000881593068141
-0.1525688293491933
-0.0241124604525385
-0.0170921483366198
-0.0159012484338708
1.8508123191063821
-0.2770317230709223
-0.0155659144047895
-0.0485624760086598
0.2438468269629366
-0.0260300499481027
-0.0272915846614126
-0.0199299005458892
-0.0178889106995063
-0.9831675891199371
-0.0129931928937630
-0.0199243877293325
-0.0613595714135378
-0.2751509996942610
-0.0887144420084942
-0.1452192288045741
-0.0230142156456210
-0.0162716086230392
-0.0151460012969255
2.3790286794598794
-0.2674475623163816
-0.0142666592943451
-0.0455215542089349
-0.2943602914174912
-0.0218382166048215
-0.0216394490569654
-0.0185198157710436
-0.0162942079907393
-1.0641047855642476
-0.0116228028680004
-0.0188619799326288
-0.0390133095567217
-0.2571725484987620
-0.0076347335157294
-0.0015281906938620
-0.0000724097844394
-0.0000592583141672
-0.0000571434677421
-0.0319716933702192
-0.0016784590401727
-0.0000717420676851
-0.0002206114357376
-0.0028254884828089
-0.0010393720962546
-0.0001411135811447
-0.0000845425059059
-0.0000593556629417
0.0487531786664046
-0.0000722143969845
-0.0000783715085464
-0.0002858866063829
-0.0008725921356798
-0.0008511159343983
-0.0009670419489973
-0.0001781043173878
-0.0001612613304482
-0.0004529805290748
-0.0371054675455324
-0.0004287512682127
-0.0001515909962483
-0.0001594841327462
-0.0063059547372363
-0.0024441229331358
-0.0011378596041549
-0.0001840917732449
-0.0002581713009272
0.0530269383552210
-0.0000765879102210
-0.0001391796728193
-0.0001287761554110
-0.0018963962650205
-0.2059021126587766
-0.1790922849878921
-0.0976283423400288
-0.0828968861301074
-0.0743662474481274
-0.1266333913940800
-0.1559311411985768
-0.1115192405821292
-0.0834374306333068
-0.3558261929837759
-0.1703109489412835
-0.1419964058103914
-0.0682720961451045
-0.0817990017748410
-0.9131127462336737
-0.0530289371770402
-0.0699075171928296
-0.4687857818570323
3.4404467054885957
-0.2148062400715569
-0.1876137644772476
-0.1028180150797520
-0.0870035504996614
-0.0778711583239486
-0.1298777057893844
-0.1632815699214237
-0.1138142716320293
-0.0864480311292594
-0.3781780127351586
-0.1748400647858098
-0.1451223408220174
-0.0713780073680820
-0.0858444685698347
-1.1001025821891444
-0.0547023550016690
-0.0731554526241826
-0.4717244983120009
3.7185820893317705
-0.5404823181042716
-0.6718628237819984
-0.1102301310878505
-0.0896459357243883
-0.1493227817611142
-1.1276273402877508
0.6582772842877812
-0.2362489167254166
0.6255316874865046
1.3002837662388451
4.2804062959861175
-0.2168545744190602
-0.1699765105977975
-0.0938056687735032
-0.9131642219764867
-0.3254839924040433
-0.1435856977103976
-0.5646633162546639
1.1271199562535725
0.1010506697620415
-0.8684029922050223
-0.1477035864083904
-0.1119578667084403
-0.1598780930144603
0.3975899901971834
1.0254723473627863
-0.2436693644703523
0.6658355076310246
1.3883583176307903
-0.3129774325817677
4.1733203113296016
-0.2512738117345562
-0.1186248749929739
-0.6966213734916054
-0.4166023923020320
-0.1887793874260668
-0.7751633380883566
1.3472998294636533
-0.1756197960900201
-0.2673600308707611
-0.0349383330728160
-0.0241017839514079
-0.0330025062837836
-1.0894478022799372
-0.8309048627575694
-0.0453486699731059
-0.2813592093962215
-0.4312839077015750
-0.0557251426623632
-0.0523722092292640
2.9477214773170721
-0.0247952148998641
-0.1934617948439756
-0.0750967436081716
-0.0337742561520297
-0.1574741917615332
-0.5979741333242771
-0.0987653746652334
-0.1583075084070566
-0.0225984834928170
-0.0186004960270352
-0.0259998885810306
-0.9428650559030911
-0.7232779874410966
-0.0374824497523530
-0.2172080795447921
0.3383086883559155
-0.0341380010488838
-0.0369275963168660
-0.0310073631774244
0.9003877676067372
-0.1667077212596181
-0.0498798079827804
-0.0251148214301171
-0.1069120124314735
-0.4747671157655360
-0.0774447394658213
-0.1203956764942192
-0.0199053031472212
-0.0170113473980989
-0.0245972665497635
-0.8237032278805002
-0.6841399876055950
-0.0297952790383488
-0.1691318119395468
-0.2619998803695556
-0.0294727171546444
-0.0317749426607800
-0.0258756898440208
-0.0174584236523393
-0.1535450687534883
-0.0429118677186116
-0.0221639676928849
-0.0888205753019585
0.9191140586241685
2.1227699919137399
1.8433906970014313
0.5603158123893064
-0.1439139814051740
-0.2075610433461128
0.3771046760798156
1.8924482835671008
-0.2681365821509900
0.7971880725911368
3.1358440428565890
-0.2818342609397998
-0.3483433999371192
-0.2682588966012841
-0.1527091325411248
6.4816887116201638
-0.4668583378631032
-0.2032240268742379
-0.5089883366288780
2.2029879875990499
-0.4548126636689279
0.1408564912829420
-0.2656869601224411
-0.2597780738653002
-0.5784253742121843
2.2089146428804991
-0.3203106999807788
-0.3441589264961476
-0.6755782182621214
0.7043894614772370
-0.4176783291711509
-0.5537538021145604
-0.3695678519573673
-0.2639961254520696
-1.6215559189299351
2.8153291058377481
-0.3151627633488248
-1.6507906426283356
0.3399509996466868
-0.2648641360818672
-0.3213811536584222
-0.0502597748849592
-0.0406394307673556
-0.0804324480161654
-0.2914039902257426
-0.1654646664099343
-0.0784520110020773
-0.3613469569617212
0.6594049991880631
-0.0787858893775692
-0.1065198507058797
-0.0684309280054744
-0.0425974551712234
-0.5424080148670719
-0.1649339680294325
-0.0596519179540905
-0.2666004962931175
0.1094354841555662
0.2700622424066769
-0.7116218009276514
-0.1153515772303445
-0.0856425817993736
-0.1170177073986561
0.8907242956478690
-1.6245147154095827
-0.1477815442942201
0.2414871931626593
0.3689113921094995
-0.2019245883022150
-0.1866162348684880
-0.1915354857339073
-0.0844824641329951
-0.7392526668761947
-0.3530507985758578
1.9800561477907122
-0.4679456035385432
-0.3868338902544736
2.0984997567683714
1.4982346280987879
-0.3502199558180478
-0.2621569646436152
-0.3778828244623393
1.5153686503670787
0.8084685545115776
1.5762362027560310
0.5485601674834926
0.0975430837901179
-0.5940967814760768
-0.5819116427536790
-0.4787224210476222
-0.2644825005937038
-1.2257795583122271
-0.6300784503446072
-0.3887842408780605
4.3808715085148435
0.8159038275315489
0.9637774856142518
0.1198506476619349
-0.0610754985665599
-0.0458378074632508
-0.0782072545437011
-0.4079646391742128
-0.0864585280338157
-0.1345857929401795
-0.1875695910900607
-0.2080448213477533
1.4721517767047021
-0.1219271206119599
-0.0994293807127005
-0.0494991929867107
-0.6589841733229451
-0.2684726575169890
-0.0807018327050308
-0.3344194567971990
0.1340050519745337
-0.5115090585564958
0.8193044633152856
-0.0963669206309123
-0.0548849784054864
-0.0938535703874296
-0.7968859676312285
-0.0169563038333745
-0.1385025885828144
-0.7992405155616089
-0.8561555895745097
-0.1901694250970697
2.9616263945321362
-0.1373737294623011
-0.0600313907663177
-0.4451587212940512
-0.3214400935682453
-0.0929421721279862
-0.4676866135811204
1.0316981639555407
-0.1793393599678271
-0.2348398105826952
-0.0383007400103773
-0.0241716076140990
-0.0332299516469053
0.0144106537181111
-0.8810117621705635
-0.0513597325987797
-0.4114016273046981
-0.4102730235011045
-0.0571423835357475
-0.0495998509585429
1.6268605960207785
-0.0253271032662776
-0.1869238056765208
-0.1477785772816778
-0.0374707544936024
-0.1483625730334563
0.0158870687741117
-0.0865125613093244
-0.1309895023924449
-0.0203207269350624
-0.0168718600563891
-0.0227585342458264
-0.8276956595099285
-0.6301498082074302
-0.0307483444054347
-0.1778029196633626
-0.2729247868178991
-0.0298906048760003
-0.0311908243355967
-0.0266991971166869
-0.0171642659614852
-0.1404802466540762
-0.0437062509399257
-0.0222039897858649
-0.0960813367085666
0.2144080894939090
0.0020452642273156
-0.0464595075080877
-0.6140436461411817
-0.8423470491163909
-1.0517841329951194
-1.1104114591851897
-0.1998170925679265
-1.5174199919987155
-1.1997899146217854
1.1471775058609903
-1.2459553475924054
-1.3644301396786531
-1.2530983595205929
-0.8814496333345579
4.1124292982725486
-2.0605678231654836
-1.1566186862267036
-1.8444778429779181
0.1838367295451984
-0.4061354835339115
-0.4618793505394126
-0.0697991761664380
-0.0517934992308806
-0.0863177428785599
-0.0474980826886148
-0.6637256136002079
-0.0832348874350795
-0.3492902615256405
-0.5735569977738559
-0.1357118339641135
-0.1330987475262423
-0.1081563231220832
-0.0536677183486121
-0.6330104235979573
1.4287431870644320
-0.0732016329824463
-0.3053520737951258
-0.8864369024456945
-0.1294918654807516
-0.1512980627965642
-0.0228861223326111
-0.0190745276578840
-0.0278685086802081
-0.0341190430642701
-0.7033739016911011
-0.0334934725790949
-0.1969916364898667
-0.3179209089732863
-0.0352714902965092
-0.0377802155369934
-0.0319710267444624
-0.0195043659204776
-0.1869350900851998
-0.0501649122033062
-0.0263726967482021
-0.1036924263184725
-0.4453751830796010
0.2439220242751360
0.1642908046533601
-0.4625446081271226
-0.3718084453037218
-0.4620841578420702
0.3990116015343150
-0.5367862828822516
1.4579567865387997
-0.4613172041581063
-1.1783786826389808
-0.7891908732554961
-0.7163504323650046
-0.6415152751648999
-0.3828921421944942
-1.7116936239444538
-0.8328320989342783
-0.5712435037676999
3.4722467036467246
-0.2863605517832736
1.2923410729869378
1.1902326986488210
0.1839800808197927
0.9648841664913038
-0.3880343236203914
1.5809684843633143
0.5598790702989420
-0.7676689604547203
0.4944592616297184
2.4823363247346171
-0.5540010554822481
-0.6767541621733983
-0.5471135602163060
-0.2985646407784175
-1.5132387512388126
-0.6528721776878822
-0.3969055132084003
-1.3576601969155047
2.0235483095018041
-0.0079986927852421
-0.0153085057189099
-0.0029035186455824
-0.0030704130811162
-0.0029611827475009
-0.7237627068755278
-0.0038744883414216
-0.0045853482685935
-0.0012655358166782
-0.0093061237691709
-0.0046254893053086
-0.0081926527535250
-0.0026747642539590
-0.0032299770543058
-0.1139928737642628
-0.0029418540727738
-0.0029608655728399
-0.0018900287162612
0.9155450215429948
-0.1636340526368028
-0.5917440794171646
-0.0624988291864808
-0.0350329165188164
-0.0325348009678532
-0.6040245376484121
1.7315929635831508
-0.2559563153887648
-1.0880417606768256
-0.2972879365881224
-0.0559614045425671
-0.0507521234927783
-0.0937614215955638
-0.0354087676832264
-0.2976615534950172
2.4809439268072855
-0.1734329348797877
-0.0539475695942773
-0.3208558860782282
-0.0000828366588829
-0.0003068439228911
-0.0000392136406674
-0.0000320128853518
-0.0000310293735991
-0.0277668581342346
-0.0010538815691911
-0.0000378648911837
-0.0001732926537009
-0.0026178548082372
-0.0000351986044679
-0.0000451925995066
-0.0000462411697628
-0.0000324096922809
0.0334647896195994
-0.0000384702741842
-0.0000461002594723
-0.0000437056867218
-0.0010357827952363
-0.0001169289117956
-0.0002349454065708
-0.0000631209912485
-0.0000498358819397
-0.0000464310061272
0.7443341990533042
-0.0004001659854542
-0.0000409877175590
-0.0000822439491274
-0.0011810108597583
-0.0000441583646173
-0.0000555021174377
-0.0000533079676457
-0.0000500136612208
-0.7412753320816520
-0.0000342034094424
-0.0000542990365973
-0.0000614864073418
-0.0004902252977435
-0.0013426179214610
-0.0047596348162934
-0.0005444372329385
-0.0004468117819276
-0.0004000078207259
-0.0670632014052093
-0.0138054955791864
-0.0004903866319901
-0.0023143467198499
-0.0353894873574997
-0.0004968705314476
-0.0005428922309923
-0.0007133827821510
-0.0004543091982756
0.1455517294981450
-0.0004340355340754
-0.0007314371220037
-0.0007097032741707
-0.0149126715579128
-0.0022418489075275
-0.0010519934562658
-0.0002067452222254
-0.0001543225227446
-0.0001455813963850
-0.0249032933504593
-0.0186777075950365
-0.0001974954259787
-0.0007485878827488
-0.0982740189288203
-0.0015015485549971
-0.0002319877146198
-0.0002419402654205
-0.0001534967879041
0.1953253794957353
-0.0002028576401418
-0.0002100992176660
-0.0438503243217101
-0.0023315303050439
-0.0091660397975871
-0.0050065084882822
-0.0003873782681637
-0.0003928272368179
-0.0003360156995809
-0.1570597534268315
-0.0010314124783650
-0.0016570384184692
-0.0002402475196381
-0.0104496562023931
-0.0021088034625418
-0.0012260720376661
-0.0003047488118335
-0.0003944379987731
0.2045917229050163
-0.0003399177582371
-0.0003379825759383
-0.0125796383682054
-0.0015732443556459
0.9222312743829038
-0.0024430807523922
-0.0002727293384567
-0.0002237463092144
-0.0001894946977642
-0.0479407618647173
-0.0014089009887693
-0.0001999737524539
-0.0001745672430762
-0.0125608649901131
-0.0005113460639130
-0.0004972201653846
-0.0001717056766168
-0.0002303268934328
-0.8535034019355690
-0.0001070305941457
-0.0001897135719434
-0.0003720683050733
-0.0012343412398402
-0.0151958792316460
-0.0034106911026127
-0.0004490674064721
-0.0004482799889043
-0.0003935568035473
0.0335621583957738
-0.0032277410953248
-0.0004053521091573
-0.0007773550812353
-0.0051789171617709
-0.0043665093865856
-0.0006804132798144
-0.0006141605191364
-0.0004563079063168
0.0112877204769359
-0.0062260523301468
-0.0006292653816777
-0.0002784320946149
-0.0021118979937717
-0.0073222248856515
-0.0052625462221687
-0.0007564335689280
-0.0007866940285728
-0.0005514485670235
-0.1229293325584619
-0.0037385212352485
-0.0006606638368581
-0.0009314078358666
-0.0343657832017759
-0.0088454178111784
-0.0017261821341727
-0.0005421195021973
-0.0006189190806298
0.1993670319705481
-0.0003613346452893
-0.0005595792022246
-0.0023443764181319
-0.0070640472361706
-0.0140928364609031
-0.0122562552160871
-0.0029166656666992
-0.0031758043227056
-0.0022988072041359
-0.1902567454969848
-0.0269569682854053
-0.0027128825838585
-0.0078966649596015
0.5286667147408439
-0.0062383698570170
-0.0207471503311477
-0.0032515421054566
-0.0040738424683451
-0.1279062940560937
-0.0025247502835021
-0.0029123197281804
-0.0455470808652503
-0.0529017348493705
-0.0056676942915960
-0.0021257514274628
-0.0003928253159674
-0.0004257038600017
-0.0003445144724866
-0.0231415223593518
-0.0049366581433395
-0.0011069717703962
-0.0008957413353489
0.0546568883478158
-0.0007609703932927
-0.0015134799828649
-0.0004328149858933
-0.0003764927791510
-0.0350674182770526
-0.0002806671144232
-0.0004420831979885
0.0273269608905623
-0.0040725395317414
-0.0001442994720863
-0.0005505488552652
-0.0001371188243984
-0.0002671513323948
-0.0001457484545268
-0.0007233211634216
-0.0021163289821015
-0.0006866538706398
-0.0005823366577238
-0.0201894928614937
-0.0002636304791771
-0.0001788740697502
-0.0003006078876266
-0.0001624101987341
-0.0001887880612555
-0.0020527401325337
-0.0002945603977837
0.0303216194137254
-0.0013370077127857
-0.0015023548563967
-0.0008714557429563
-0.0000628127391480
-0.0000496189609535
-0.0000461325024067
-0.0099768794355961
-0.0002938056166316
-0.0000817543454139
-0.0000454556885292
-0.0043775822828954
-0.0001297917163304
-0.0002998208949267
-0.0000458602240866
-0.0000506956692284
0.0185330297011385
-0.0000387688968581
-0.0000478772324241
-0.0001875716825728
-0.0004247912137540
-0.0074363891778174
-0.0076071063881942
-0.0011257352218500
-0.0012544354823690
-0.0012972645141427
1.5450887822207211
-0.0137451038389931
-0.0019577009829177
-0.0028747790576367
-0.0345126238277556
-0.0025050807215945
-0.0036784935367884
-0.0016674300686608
-0.0012770608872140
-1.4185574271431067
-0.0159264005560086
-0.0017762488921709
-0.0181258266054850
-0.0097636753179765
1.4876606687205802
-0.3192243875200482
-0.0106191737340051
-0.0059056010516660
-0.0078919147968048
-0.0372927899119258
0.0002487208771419
-0.1647659929675110
-0.4669753720686208
-0.0709641347398056
-0.0221922931182298
-0.0138496179143590
-0.0201771373564300
-0.0069608813711763
-0.0962500191885036
-0.0506714230827702
-0.0272512096598201
-0.0550475177645787
-0.1118699233514139
-0.0470911922952869
-0.0062916152155523
-0.0004136476138621
-0.0003541369835224
-0.0003296975201170
-0.0657697614206778
-0.0078217254706187
-0.0003499881033167
-0.0010545847202796
-0.0144053609507286
-0.0024855434568417
-0.0005078902453720
-0.0004757142664721
-0.0003569222113019
0.1559210781324542
-0.0031619473982846
-0.0004832666608983
-0.0002699579556509
-0.0042981256436567
-0.0188523144141008
-0.0135614064287155
-0.0015374280777267
-0.0014719024756366
-0.0022008788025049
-0.1899537656702220
-0.0271555476174432
-0.0022959998650588
-0.0040311855723517
-0.0798577223997237
-0.0301242463022367
-0.0115263735489263
-0.0019684320635273
-0.0017509471254818
0.4292345127169653
-0.0013652552712612
-0.0017638205701792
-0.0226467330417021
-0.0171705534701210
-0.0452130287874184
-0.0738726890534231
-0.0184100673459913
-0.0201837635180325
-0.0205238283036556
-0.2508833670838578
-0.2002492568482752
-0.0307077532063032
-0.0642468905980794
-0.0572324754029007
-0.0428082604327491
-0.0883595236565794
-0.0339979515063683
-0.0205804089431951
-0.1289203553361359
-0.0333186976758974
-0.0339334519054018
-0.0482827590204132
1.2117245286246698
-0.0087591578314615
-0.0088482519668457
-0.0013550977740849
-0.0031705217255029
-0.0010128329165527
0.0946438955384427
-0.0044953123294961
-0.0014706958592848
-0.0028766293750198
-0.0458240328379350
-0.0045547369204531
-0.0023159495164572
-0.0010653203367881
-0.0010724299605500
0.0280254661781132
-0.0008331218897397
-0.0010425798673138
-0.0007859762668796
-0.0331867143422512
-0.0011699644251197
-0.0013269703390698
-0.0001555450428175
-0.0001311810062287
-0.0001124472721739
-0.0124815258797838
-0.0036493482775011
-0.0002193908246713
-0.0005413219618463
0.1661062071523538
-0.0002008866297667
-0.0001715293500707
-0.0001569822559651
-0.0001184177775437
-0.1388691243908821
-0.0001310832607528
-0.0001538577796786
-0.0025995233110783
-0.0039171073674106
-0.2256984877830231
-0.2556219410688872
-0.0377115523101711
-0.0308353699372451
-0.0440462161148716
-0.4583137202535412
-0.3234497050543971
-0.0306848516975304
-0.0598203492293118
3.7087018204818292
-0.0454923654175365
-0.0810631647244069
-0.0332485761968960
-0.0353709166875114
-1.1917963518213814
-0.0203952923749114
-0.0313180094843595
-0.3320808863793236
-0.4717540639467414
-0.0032909377840543
-0.0029172433347996
-0.0003198430558864
-0.0003295288476016
-0.0003094598132436
0.6108867919322466
-0.0194972167696229
-0.0017102346013019
-0.0014425016030164
-0.0414888613116159
-0.0004245784503900
-0.0003425395629141
-0.0003902469126370
-0.0003310841177310
-0.1363162771733757
-0.0002852705137190
-0.0003938664628815
-0.3991336217130395
-0.0019634799044180
-0.5226865742049190
-0.6423507086832030
-0.1283732860984542
-0.1535400790644383
-0.1308667839472164
-1.1517387331699451
1.0647876078464662
-0.2439997348321587
-0.3254713826610941
2.6006872922976849
-0.3005527750181120
-0.5345244808040620
-0.1766971433846454
-0.1296750765633815
0.1459190692517197
-0.5430601102545106
-0.2223662925937726
2.4181888996417906
-1.0236797077576691
-0.0199069560843235
-0.0140877386335315
-0.0016076445322800
-0.0018878887821756
-0.0018565823870959
-0.3801700946682504
-0.0056043756497556
-0.0099502238765283
-0.0017206116637958
-0.0578246054535472
-0.0215564249219613
-0.0081263476936109
-0.0016783684820370
-0.0018781119060476
0.5310934299325762
-0.0049875648873971
-0.0017453696695728
0.0107401063593217
-0.0072446270000155
-0.0490287381041766
-0.0120503155799267
-0.0013990426136705
-0.0015652321475884
-0.0019355450964859
-0.0955946814591263
-0.0510593886924610
-0.0078241082435214
-0.0048953511231866
-0.1926961539457092
-0.0088324644687699
-0.0037258985383112
-0.0016924320898936
-0.0016701357666210
-0.0131859965774478
-0.0013829181000918
-0.0016641791200019
0.4613310837790668
-0.0111285021120554
-0.0075093781405905
-0.0034166483231020
-0.0006909426388021
-0.0007681901656809
-0.0007343235973985
-0.0077294636420154
-0.0028083476134109
-0.0057140329494697
-0.0003605163554363
-0.0127496181670552
-0.0051540855570293
-0.0007195307351830
-0.0005991945487149
-0.0008071210707085
-0.0010908742486535
-0.0005790345522557
-0.0006743972542148
0.0532215072926234
-0.0011158077328738
-0.0471325737573326
-0.1974414640212151
-0.0118362234520127
-0.0080964022100396
-0.0071004271390273
-0.2216368098758164
1.7869700071770309
-0.2411814192451451
-0.4434940909714682
-0.0592096834269970
-0.0133717553373277
-0.0213045171900470
-0.0202408797833254
-0.0075524971237128
-0.1574307288580641
-0.0812954358212906
-0.0285581156276702
-0.1462657632799468
-0.0738212200563317
-0.0013027150362608
-0.0013697550240719
-0.0001193602338424
-0.0001046836512641
-0.0000849324191082
-0.0161454555617603
-0.0074283920818073
-0.0001144664307997
-0.0007031999940961
-0.0203754085282356
-0.0001379941059318
-0.0001621481528649
-0.0001445051793008
-0.0000912289459945
0.0519033564482077
-0.0001100320427896
-0.0001452037017701
-0.0001773164557227
-0.0031865589025774
-0.0043593632831784
-0.0023415200471384
-0.0001925192951084
-0.0001650598534691
-0.0001391947996141
-0.0337651187353210
-0.0013842347106142
-0.0001856177473488
-0.0002127650142574
-0.0195836045781288
-0.0002529672208281
-0.0003489602986993
-0.0001382686391302
-0.0001487869002934
0.0663607657738756
-0.0001245925702505
-0.0001426492457178
-0.0007282800202638
-0.0021472628143816
-0.0003126808401127
-0.0009271306437310
-0.0001746347754701
-0.0003357591935225
-0.0001740548476228
-0.0021630627662985
-0.0030876526741230
-0.0004802262928919
-0.0007874024312941
-0.0423383923699000
-0.0003243725759341
-0.0002127330873940
-0.0003722757157437
-0.0001994480231892
-0.0007946061322918
-0.0037740545728804
-0.0003622425196681
0.0589156616336719
-0.0020949321715762
-0.0051110477058313
-0.0197781524781828
-0.0014817589032620
-0.0030308642714911
-0.0014113390055896
0.2177093851630046
-0.0097801925396018
-0.0059823953934450
-0.0038433698304277
-0.0134941451701056
-0.0019562977466519
-0.0062372418022678
-0.0020525982565056
-0.0014672755148396
-0.0443360911848420
-0.0036754519038379
-0.0021653942730710
-0.0409052114484109
-0.0510005577346308
0.0408119659753547
-0.0703406034376174
-0.0031897369092169
-0.0033835546435982
-0.0043032229818665
-0.0181181590202864
-0.0361600335473331
-0.0108103070505578
-0.0089360460065942
-0.0407328889814768
-0.0591618629845271
-0.0103208924366320
-0.0056805199893758
-0.0038418037711105
0.3325420521621140
-0.0370068084752815
-0.0058396308522353
-0.0297323101972915
-0.0257956368524894
-0.0007453748106071
-0.0009816337403803
-0.0001825919002262
-0.0001599566788895
-0.0001397316876738
-0.0317770253746490
-0.0002929029673495
-0.0001389303282383
-0.0000847625276066
-0.0084153757424028
-0.0001710802596960
-0.0002600541644082
-0.0001187319664458
-0.0001644473195016
0.0445781905702936
-0.0000838800236033
-0.0001327671979332
-0.0001122055909457
-0.0006167382897197
-0.0090238112029348
-0.0139959707524642
-0.0026292643569380
-0.0029008454319717
-0.0025990220219050
0.3070658189664398
-0.0248193125312185
-0.0108801492961148
-0.0093406549623275
-0.0285980240916077
-0.0037434751018168
-0.0042796654191054
-0.0040007491674110
-0.0027537576052130
-0.0501018173929218
-0.0181834460310691
-0.0069575118120359
-0.0862229951426929
-0.0260353466467064
-0.0827423029545730
-0.0816696355217800
-0.0141123557603503
-0.0150735238967573
-0.0140412693630471
1.9535596546966705
-0.1818727066584143
-0.0537551446702594
-0.0548684134752559
-0.1851665065126462
-0.0258077847964665
-0.0326609815309514
-0.0215276362242738
-0.0147697742685467
-0.4427641819049173
-0.0622732568943917
-0.0270758444068540
-0.4871849370248863
-0.1561933988322566
-0.0000725114824128
-0.0001559928120571
-0.0000549794979778
-0.0000520033783794
-0.0000515932574368
-0.0695867826081242
-0.0005211340950458
-0.0000556865226620
-0.0001117858022574
-0.0011485330084721
-0.0000573301831615
-0.0000637194114117
-0.0000597798685076
-0.0000522803875889
0.0727618291480277
-0.0000594394263317
-0.0000585171310005
-0.0001037726277533
-0.0004959876474707
-0.0035876536704591
-0.0064569584672519
-0.0009700067364705
-0.0008950231889812
-0.0010790515182663
-0.3389231059412270
-0.0052918966350244
-0.0007511688675192
-0.0011545924600911
-0.0217287018457143
-0.0008404898021366
-0.0013500121199410
-0.0008716182905437
-0.0009559914092244
0.3988523297041707
-0.0004802408185439
-0.0008664839653213
-0.0007531098491485
-0.0118962241182376
-0.0045681740324067
-0.0019281452873276
-0.0002947222087679
-0.0002372768445944
-0.0004237821674848
-0.0311466180278329
-0.0030748806496339
-0.0001673512601732
-0.0003581937325637
-0.0132751103523781
-0.0003276018330471
-0.0005594696883654
-0.0002710707901864
-0.0003109071666183
0.0599822281283239
-0.0001000095692939
-0.0002491401799953
-0.0001941323305575
-0.0024956420071232
-0.3559219540074497
-0.0949603015403916
-0.0048334611827277
-0.0043174576376882
-0.0038690022339989
1.8645795645388485
-0.1164877610396815
-0.0078895086943683
-0.0169791787421733
-0.1640122477571410
-0.0934244035723081
-0.0048836610141283
-0.0068512256535547
-0.0044673008985131
-0.8753524123846352
-0.0047456265372429
-0.0071945934649586
-0.0444902243959886
-0.0538992437818283
-0.0259187133678492
-0.0440496924547116
-0.0050758243298103
-0.0048264072757160
-0.0101491662099348
1.7025016853645683
-0.0168548389895743
-0.0099393568873950
-0.0073296081709160
-0.0722349377669609
-0.0528933893587140
-0.0762010185548031
-0.0061744863952156
-0.0066565818451174
-1.2306681647639246
-0.0110721970014351
-0.0054585821925411
-0.0455876462969227
-0.0714110735030007
-0.0273378022076634
-0.1002646366462519
-0.0060109077353841
-0.0218448287970960
-0.0064320536109395
0.5644534171025568
-0.0112149298526705
-0.0131112280516782
-0.0102867774348684
-0.0144569907549733
-0.0067858861597011
-0.0042390500981806
-0.0057735050450350
-0.0063566363118060
-0.0151412524361197
-0.0043808293592293
-0.0060290534537343
-0.0030244090992974
-0.3017626400479444
-0.0231877118830766
-0.0085109842327558
-0.0012495033257901
-0.0011777909109686
-0.0017922605708546
-0.0376138877396272
-0.0898698806571725
-0.0039196307307027
-0.0044543203814966
0.3864373185146707
-0.0061998074319256
-0.0012443062221872
-0.0017967314507154
-0.0014307795605426
-0.2862888357767693
-0.0010643091225621
-0.0017352703667930
0.0982352518343443
-0.0131365599850456
-0.0101810569258687
-0.0068982901192806
-0.0005827412536823
-0.0009005606401489
-0.0003787757977160
0.5043888921185755
-0.0028215761907698
-0.0004441014428976
-0.0003637757219620
-0.0335683303532335
-0.0014582242034140
-0.0018083080407792
-0.0003446978086991
-0.0004445757656414
-0.4385440466915737
-0.0003121343504152
-0.0003913161461038
-0.0007279387710709
-0.0042184418952993
-0.0096592243373500
-0.0101054837339120
-0.0013421280593049
-0.0014602015969889
-0.0024078572708500
-0.0071028436798352
-0.0216335371849220
-0.0013936171735488
-0.0032621586492077
-0.0953672211086494
-0.0081374357210828
-0.0078088478622474
-0.0018378016700118
-0.0017304811754485
0.1993401874608882
-0.0060792575406840
-0.0016378901462976
-0.0019660461957617
-0.0164081543548800
-0.0123765536499664
-0.0081640581216953
-0.0020019044300133
-0.0027829167207817
-0.0017057658124721
-0.0188411033013987
-0.0820650735551069
-0.0032733627509113
-0.0063622872104488
-0.4034249818723624
-0.0051496240427675
-0.0134418053679529
-0.0023558168520201
-0.0017723579150650
-0.1033994894131816
-0.0016053120190902
-0.0021982160927815
0.6973260790972527
-0.0264054499691426
-0.0085997381158633
-0.0035500872668498
-0.0006861473831978
-0.0008240138246970
-0.0005990224134911
-0.0340920101892128
-0.0063143346259158
-0.0029872278154203
-0.0010906147752056
0.0026480205885216
-0.0020670098591142
-0.0004566722037589
-0.0006287390328696
-0.0006618744041366
-0.0641446976968179
-0.0004915431514001
-0.0006588894048178
0.1306816778303936
-0.0054770762561881
-0.0166737946579878
-0.0145572890437519
-0.0021926342722798
-0.0027484339514393
-0.0022087389144129
0.5842165597025117
-0.0122791344579258
-0.0037717631696630
-0.0033338528550321
-0.1339946695986742
-0.0036472238193936
-0.0042717190275136
-0.0024277113383395
-0.0023014494271025
-0.6382551218350240
-0.0156068298686337
-0.0024767342447692
0.2899312910828431
-0.0134007503035394
-0.0008237315763117
-0.0013794029678253
-0.0003321068407999
-0.0003494471684658
-0.0003208827526496
0.0611478908138034
-0.0039764274534523
-0.0012807546822467
-0.0009996264849586
-0.0052161409099092
-0.0022255305594471
-0.0007058220397889
-0.0005220119226653
-0.0003557996246638
-0.0261687476436270
-0.0016917043004631
-0.0005403530328558
-0.0127042272643350
-0.0015551735893671
-0.0414367118137117
-0.0343532863134192
-0.0055691755469812
-0.0066844935615399
-0.0063096867950880
0.1703527728980835
-0.0282779030402631
-0.0294501218614891
-0.0094013705417002
-0.1380063798636841
-0.0074961065213760
-0.0234651601001942
-0.0054726445094314
-0.0061286030592839
0.3174181905128646
-0.0078527802918339
-0.0070340025725049
-0.0919131605692988
-0.0389193764490967
-0.0017293537136269
-0.0007141478227178
-0.0001551369637521
-0.0001508797344497
-0.0005056636370902
0.2170928482124843
-0.0006384379482154
-0.0002207108143413
-0.0002722615291953
-0.0006430051482924
-0.0001772924835496
-0.0002970030249878
-0.0001786552873158
-0.0001491066941523
-0.2060636363396064
-0.0013341594260341
-0.0001773227604731
-0.0014510471194502
-0.0022350277652797
0.1086874585351100
-0.3680187300380802
-0.1512757045957362
-0.1650634214380407
1.6594370013271449
1.5770066880811515
-0.7503646501203706
-0.3360617998359465
-0.2573842350989299
-1.1454238979980575
-0.5565917301046036
0.1837923132067233
-0.1945330670351927
-0.1937071095502033
1.7960390837719507
-0.5232772877647001
-0.1772952837334668
-1.1380504982401620
0.6320848706312667
-0.1046402629470501
-0.0709903624099206
-0.0081067520763707
-0.0072677612367401
-0.0087580638563844
-0.8132896641725169
-0.0719745586387635
-0.0080899589727993
-0.0098746388542758
-0.3219851389673393
1.7353093555401509
-0.0538216516520225
-0.0076914319065575
-0.0079001876405879
-0.1446133291399592
-0.0050615470797332
-0.0071622378018926
-0.0195361175737619
-0.0645456906134133
-0.0410604169574064
-0.0250222431818946
-0.0037973002042867
-0.0041001987806769
-0.0037337808741704
0.7398802833417102
-0.0459763515031791
-0.0155875325699483
-0.0150749947830514
-0.0515534100750944
-0.0090012065984652
-0.0111489255801715
-0.0055715926568748
-0.0039640844713667
-0.2818164949943363
-0.0183133992093170
-0.0073966273635590
-0.1532926946746271
-0.0434690288632735
-0.0794700749058095
-0.0148030892799429
-0.0009910882813061
-0.0009873858098013
-0.0009087314273046
0.1422097747787186
-0.0159829779457317
-0.0019451823046242
-0.0033808214634691
-0.0179934591255413
-0.0116371832826315
-0.0020761489215291
-0.0015860684683319
-0.0010122673428256
0.0386770556330025
-0.0087786112136098
-0.0019456967210878
-0.0095541099816588
-0.0078339339364694
-0.0049105525549012
-0.0038125104630054
-0.0005494506733108
-0.0004815359523263
-0.0019663442649278
-0.1292901881576013
-0.0031714938168584
-0.0005080558554394
-0.0005894969618246
-0.0070762936269389
-0.0014703356220935
-0.0012176708472618
-0.0004530777121685
-0.0004830023169260
0.1717326811379656
-0.0003315616774574
-0.0004684197067873
-0.0007175927460609
-0.0142350981820671
-0.0030379477257350
-0.0020535346569349
-0.0002649057059910
-0.0002666450007556
-0.0001978846175550
-0.0410592514527040
-0.0006674167634860
-0.0002315658960293
-0.0001530927332689
-0.0139146091343043
-0.0009545961061104
-0.0007020301467614
-0.0001766388677607
-0.0002368042892581
0.0665476129077649
-0.0001229068088412
-0.0001939745882605
-0.0008001924241754
-0.0015136159898328
-0.0005303035954069
-0.0015450866876476
-0.0003207873502730
-0.0006866096601706
-0.0003213543201938
-0.0017715744737902
-0.0056045755412023
-0.0011014454644236
-0.0016505623937893
-0.0862748998934382
-0.0013665713215941
-0.0015703334682079
-0.0007005691405464
-0.0003541473810799
-0.0013359341468297
-0.0038807058653350
-0.0006555952205670
0.1141505024409987
-0.0044794465165291
-0.0071484077278291
-0.0086175160818139
-0.0014642730877105
-0.0024030804915986
-0.0015465885250999
0.1528019559039500
-0.0033911165503102
-0.0015187228756012
-0.0021721453301043
-0.0519372561506958
-0.0081047817417256
-0.0050685806506439
-0.0012368687356046
-0.0013434039769925
-0.0232714826804912
-0.0054665348327848
-0.0011689029780895
-0.0034271077833636
-0.0235151857034968
-0.0728185197509125
-0.0146070605183564
-0.0012780670815686
-0.0014240217575295
-0.0012164999232889
0.4381399069247555
-0.0137412718433858
-0.0043496759000505
-0.0038834476603454
-0.0153707552860420
-0.0193606775226920
-0.0033261134167006
-0.0022585693077640
-0.0013419771628121
-0.2518926621173910
-0.0083647847126822
-0.0028438427902136
-0.0119533847227088
-0.0081085754503290
-0.0163406328347416
-0.0175757694666767
-0.0020536543869899
-0.0020607715755479
-0.0037586953705982
-0.0182241719881476
-0.0102821921250505
-0.0027064341106745
-0.0025033606105938
-0.6869063070605851
-0.0081900647604972
-0.0057719442092066
-0.0022218767651913
-0.0026066086360292
0.7686840594769596
-0.0108638262433458
-0.0019901979924889
0.0526469197849301
-0.0272744711255219
-0.0200704512619523
-0.0148759046409635
-0.0026317937142513
-0.0023731683497989
-0.0019665846319861
0.2230498374231158
-0.0323462399633412
-0.0019422236608182
-0.0047224855346146
-0.1093396742788413
-0.0164848118063939
-0.0049417210983117
-0.0024503854188681
-0.0022259724534035
0.0230695590309284
-0.0029897929168925
-0.0029012287412227
-0.0037642248081320
-0.0200927331742149
-0.0176899339819653
-0.0215973189448919
-0.0023718392247764
-0.0020122430905276
-0.0048441053091422
-0.0276907899798889
-0.0229041343573477
-0.0021925171568056
-0.0038392443086812
0.4243003499637295
-0.0030381362481717
-0.0048494114313885
-0.0025356581937917
-0.0029575272682566
-0.2522845450350994
-0.0012116814898469
-0.0021374463728624
-0.0050615643608802
-0.0450822532094629
-0.0955416078334184
-0.1261930522809004
-0.0354170159751976
-0.0378979386751715
-0.0381092299021942
-0.3886401084643742
-0.2232472237354250
-0.0649432698214088
-0.0952541294433653
-0.4056296337593002
-0.0524211884766193
-0.0553620858909016
-0.0492103263659400
-0.0368733891023650
0.1046468443426499
-0.0672212752065341
-0.0594984253051698
-0.5140909389616107
2.2409039948570797
-0.0994376224091848
-0.1413703113227936
-0.0376282130718153
-0.0405073328805642
-0.0407323946517741
-0.4057883735485122
-0.2623028535857765
-0.0908363922268386
-0.1081645644353502
-0.4173272399583247
-0.0570268290312033
-0.0580256328252240
-0.0543219484655627
-0.0396395360653312
0.0997268414539205
-0.0720087760287330
-0.0648032215361802
-0.6967884821657194
2.5869828827548034
-0.0236485282835132
-0.1299293062557982
-0.0169366399001486
-0.0305626314104737
-0.0172876302079029
1.0739572499887404
-0.1174329133124077
-0.0222988426024973
-0.0507162748076371
-0.0933480399724768
-0.0220103644685880
-0.0177502430812821
-0.0279644784625363
-0.0170924078136172
-0.1002427474630539
-0.0236523640474085
-0.0272615561748917
-0.0258990132534400
-0.3099232684710116
-0.0006115357649382
-0.0006253544529310
-0.0000791098476243
-0.0000659609821386
-0.0000600622370556
-0.0213142775649955
-0.0002757780899050
-0.0000771817798239
-0.0000705075776941
-0.0066044904602865
-0.0001071725435322
-0.0003589160568659
-0.0000590543013970
-0.0000640099631164
0.0310880815608339
-0.0000569598584730
-0.0000613360129657
-0.0000987376819910
-0.0004976363851011
-0.0127204610756455
-0.0023391481449969
-0.0001443320794431
-0.0001219794279569
-0.0001163796527558
-0.0785965164339953
-0.0035179949862619
-0.0001658641129403
-0.0004530509934713
-0.0059931024608928
-0.0020884832635635
-0.0004065208943575
-0.0001603590775938
-0.0001208725892028
0.1092913385640569
-0.0001391938247888
-0.0001600378824004
-0.0002838580704566
-0.0017631835932301
-0.0034863628353104
-0.0026207917626857
-0.0002217022696021
-0.0003661911328302
-0.0001984505174216
-0.0172040906982319
-0.0006799781312235
-0.0008441405180269
-0.0002103606035273
-0.0149745090304275
-0.0005611111467390
-0.0004598401231631
-0.0001808498356127
-0.0002215235120534
0.0183057876601072
-0.0001501625985553
-0.0001953706889883
0.0259592326806302
-0.0016895849362911
-0.0362964633783718
-0.0349813806213935
-0.0068175614531899
-0.0056606154356510
-0.0059300377072549
-0.1678619938681842
-0.0420272983120458
-0.0055573509968904
-0.0105876525478734
0.8856516223243329
-0.0110798674987401
-0.0406749133206445
-0.0067177274713101
-0.0057003932520731
-0.4025702419064143
-0.0046316204534291
-0.0058488748790119
-0.0275078698775117
-0.0651997593445365
-0.0824846233326194
0.0320525611895988
-0.0051991997239241
-0.0012944808640752
-0.0011489374689102
-0.0740248206754860
-0.0213470432458110
-0.0056119799546361
-0.0085008313096204
-0.0885317636661037
-0.0027687841734004
-0.0217497682402009
-0.0053388443297504
-0.0012722774549073
0.4550957760818268
-0.0020997161418810
-0.0013142497277592
-0.1375656715221299
-0.0268953454401677
-0.0228946080843017
-0.1533955591406322
-0.0037512595501991
-0.0013046421144324
-0.0012099508383579
-0.0220158929541176
-0.0040010127392694
-0.0051518604507511
-0.0021464298489326
-0.0089301815278613
-0.0288359517119802
0.3002263624292972
-0.0048746161462020
-0.0013759702925269
-0.0044686738380106
-0.0025688923009244
-0.0012946393314414
-0.0209287761026745
-0.0110774454566625
-0.0499774997475266
-0.2050800799132800
-0.0125514093750570
-0.0081594072551811
-0.0084603693485474
-0.1845214153539743
1.8759542706832439
-0.1898457940499397
-0.4753853712286885
-0.0654270887213174
-0.0116869236747743
-0.0221702246106012
-0.0220690841668227
-0.0083054034768145
-0.3194550831989231
-0.0993837802443899
